digraph Tree {
node [shape=box, style="rounded", color="black", fontname=helvetica] ;
edge [fontname=helvetica] ;
0 [label="b8_LC8_075 <= 2086.5\nmse = 3.4\nsamples = 11721\nvalue = 2.2"] ;
1 [label="b17_LC8_07 <= 1201.5\nmse = 2.5\nsamples = 11128\nvalue = 2.1"] ;
0 -> 1 [labeldistance=2.5, labelangle=45, headlabel="True"] ;
2 [label="b24_LC8_07 <= 576.5\nmse = 3.2\nsamples = 7107\nvalue = 2.5"] ;
1 -> 2 ;
3 [label="b18_LC8_07 <= 525.5\nmse = 0.7\nsamples = 3565\nvalue = 1.9"] ;
2 -> 3 ;
4 [label="b23_LC8_07 <= 165.5\nmse = 0.9\nsamples = 1592\nvalue = 2.3"] ;
3 -> 4 ;
5 [label="b4_LC8_075 <= -6.0\nmse = 0.3\nsamples = 884\nvalue = 1.9"] ;
4 -> 5 ;
6 [label="b17_LC8_07 <= 555.0\nmse = 0.2\nsamples = 88\nvalue = 1.1"] ;
5 -> 6 ;
7 [label="b26_LC8_07 <= -2521.0\nmse = 0.2\nsamples = 31\nvalue = 1.5"] ;
6 -> 7 ;
8 [label="b12_LC8_07 <= 1183.5\nmse = 0.3\nsamples = 6\nvalue = 1.0"] ;
7 -> 8 ;
9 [label="mse = 0.0\nsamples = 1\nvalue = 2.1"] ;
8 -> 9 ;
10 [label="b2_LC8_075 <= 141.0\nmse = 0.0\nsamples = 5\nvalue = 0.8"] ;
8 -> 10 ;
11 [label="b18_LC8_07 <= 447.0\nmse = 0.0\nsamples = 2\nvalue = 0.5"] ;
10 -> 11 ;
12 [label="mse = 0.0\nsamples = 1\nvalue = 0.6"] ;
11 -> 12 ;
13 [label="mse = -0.0\nsamples = 1\nvalue = 0.5"] ;
11 -> 13 ;
14 [label="b12_LC8_07 <= 1296.5\nmse = 0.0\nsamples = 3\nvalue = 0.9"] ;
10 -> 14 ;
15 [label="b11_LC8_07 <= 23916.5\nmse = 0.0\nsamples = 2\nvalue = 0.9"] ;
14 -> 15 ;
16 [label="mse = 0.0\nsamples = 1\nvalue = 0.9"] ;
15 -> 16 ;
17 [label="mse = 0.0\nsamples = 1\nvalue = 0.9"] ;
15 -> 17 ;
18 [label="mse = -0.0\nsamples = 1\nvalue = 0.9"] ;
14 -> 18 ;
19 [label="b29_LC8_07 <= 106.0\nmse = 0.1\nsamples = 25\nvalue = 1.6"] ;
7 -> 19 ;
20 [label="b20_LC8_07 <= 11000.0\nmse = 0.1\nsamples = 14\nvalue = 1.4"] ;
19 -> 20 ;
21 [label="b11_LC8_07 <= 12500.0\nmse = 0.0\nsamples = 4\nvalue = 1.0"] ;
20 -> 21 ;
22 [label="b33_LC8_07 <= 163.5\nmse = 0.0\nsamples = 2\nvalue = 0.9"] ;
21 -> 22 ;
23 [label="mse = 0.0\nsamples = 1\nvalue = 0.9"] ;
22 -> 23 ;
24 [label="mse = -0.0\nsamples = 1\nvalue = 0.9"] ;
22 -> 24 ;
25 [label="b24_LC8_07 <= -152.5\nmse = 0.0\nsamples = 2\nvalue = 1.2"] ;
21 -> 25 ;
26 [label="mse = 0.0\nsamples = 1\nvalue = 1.1"] ;
25 -> 26 ;
27 [label="mse = -0.0\nsamples = 1\nvalue = 1.3"] ;
25 -> 27 ;
28 [label="b34_LC8_07 <= -950.0\nmse = 0.1\nsamples = 10\nvalue = 1.6"] ;
20 -> 28 ;
29 [label="b14_LC8_07 <= -12666.5\nmse = 0.0\nsamples = 2\nvalue = 2.0"] ;
28 -> 29 ;
30 [label="mse = 0.0\nsamples = 1\nvalue = 2.0"] ;
29 -> 30 ;
31 [label="mse = -0.0\nsamples = 1\nvalue = 2.1"] ;
29 -> 31 ;
32 [label="b35_LC8_07 <= 1875.0\nmse = 0.1\nsamples = 8\nvalue = 1.5"] ;
28 -> 32 ;
33 [label="b22_LC8_07 <= -115.5\nmse = 0.0\nsamples = 2\nvalue = 2.0"] ;
32 -> 33 ;
34 [label="mse = 0.0\nsamples = 1\nvalue = 1.8"] ;
33 -> 34 ;
35 [label="mse = 0.0\nsamples = 1\nvalue = 2.1"] ;
33 -> 35 ;
36 [label="b32_LC8_07 <= 48.5\nmse = 0.0\nsamples = 6\nvalue = 1.4"] ;
32 -> 36 ;
37 [label="b27_LC8_07 <= 20.0\nmse = 0.0\nsamples = 2\nvalue = 1.3"] ;
36 -> 37 ;
38 [label="mse = 0.0\nsamples = 1\nvalue = 1.2"] ;
37 -> 38 ;
39 [label="mse = -0.0\nsamples = 1\nvalue = 1.3"] ;
37 -> 39 ;
40 [label="b9_LC8_075 <= -8311.0\nmse = 0.0\nsamples = 4\nvalue = 1.5"] ;
36 -> 40 ;
41 [label="b3_LC8_075 <= 73.5\nmse = 0.0\nsamples = 2\nvalue = 1.5"] ;
40 -> 41 ;
42 [label="mse = 0.0\nsamples = 1\nvalue = 1.5"] ;
41 -> 42 ;
43 [label="mse = 0.0\nsamples = 1\nvalue = 1.5"] ;
41 -> 43 ;
44 [label="b26_LC8_07 <= -1681.5\nmse = 0.0\nsamples = 2\nvalue = 1.5"] ;
40 -> 44 ;
45 [label="mse = 0.0\nsamples = 1\nvalue = 1.5"] ;
44 -> 45 ;
46 [label="mse = 0.0\nsamples = 1\nvalue = 1.5"] ;
44 -> 46 ;
47 [label="b12_LC8_07 <= 1222.5\nmse = 0.0\nsamples = 11\nvalue = 1.8"] ;
19 -> 47 ;
48 [label="b2_LC8_075 <= 190.5\nmse = 0.0\nsamples = 6\nvalue = 2.0"] ;
47 -> 48 ;
49 [label="b27_LC8_07 <= 58.0\nmse = 0.0\nsamples = 5\nvalue = 2.0"] ;
48 -> 49 ;
50 [label="b25_LC8_07 <= -726.0\nmse = 0.0\nsamples = 2\nvalue = 2.1"] ;
49 -> 50 ;
51 [label="mse = 0.0\nsamples = 1\nvalue = 2.1"] ;
50 -> 51 ;
52 [label="mse = 0.0\nsamples = 1\nvalue = 2.1"] ;
50 -> 52 ;
53 [label="b12_LC8_07 <= 1195.0\nmse = 0.0\nsamples = 3\nvalue = 2.0"] ;
49 -> 53 ;
54 [label="b11_LC8_07 <= 13139.0\nmse = 0.0\nsamples = 2\nvalue = 1.9"] ;
53 -> 54 ;
55 [label="mse = 0.0\nsamples = 1\nvalue = 1.9"] ;
54 -> 55 ;
56 [label="mse = 0.0\nsamples = 1\nvalue = 1.9"] ;
54 -> 56 ;
57 [label="mse = 0.0\nsamples = 1\nvalue = 2.0"] ;
53 -> 57 ;
58 [label="mse = -0.0\nsamples = 1\nvalue = 1.7"] ;
48 -> 58 ;
59 [label="b23_LC8_07 <= -52.0\nmse = 0.0\nsamples = 5\nvalue = 1.6"] ;
47 -> 59 ;
60 [label="b25_LC8_07 <= -1812.5\nmse = 0.0\nsamples = 4\nvalue = 1.7"] ;
59 -> 60 ;
61 [label="b6_LC8_075 <= 11.5\nmse = 0.0\nsamples = 2\nvalue = 1.5"] ;
60 -> 61 ;
62 [label="mse = 0.0\nsamples = 1\nvalue = 1.6"] ;
61 -> 62 ;
63 [label="mse = 0.0\nsamples = 1\nvalue = 1.4"] ;
61 -> 63 ;
64 [label="b5_LC8_075 <= 35.5\nmse = 0.0\nsamples = 2\nvalue = 1.8"] ;
60 -> 64 ;
65 [label="mse = 0.0\nsamples = 1\nvalue = 1.8"] ;
64 -> 65 ;
66 [label="mse = 0.0\nsamples = 1\nvalue = 1.8"] ;
64 -> 66 ;
67 [label="mse = -0.0\nsamples = 1\nvalue = 1.2"] ;
59 -> 67 ;
68 [label="b6_LC8_075 <= 10.0\nmse = 0.1\nsamples = 57\nvalue = 0.9"] ;
6 -> 68 ;
69 [label="b30_LC8_07 <= -218.0\nmse = 0.0\nsamples = 23\nvalue = 0.7"] ;
68 -> 69 ;
70 [label="b13_LC8_07 <= 1988.5\nmse = 0.0\nsamples = 12\nvalue = 0.8"] ;
69 -> 70 ;
71 [label="b21_LC8_07 <= 10955.5\nmse = 0.0\nsamples = 3\nvalue = 0.6"] ;
70 -> 71 ;
72 [label="b18_LC8_07 <= 513.5\nmse = 0.0\nsamples = 2\nvalue = 0.5"] ;
71 -> 72 ;
73 [label="mse = 0.0\nsamples = 1\nvalue = 0.5"] ;
72 -> 73 ;
74 [label="mse = 0.0\nsamples = 1\nvalue = 0.5"] ;
72 -> 74 ;
75 [label="mse = 0.0\nsamples = 1\nvalue = 0.7"] ;
71 -> 75 ;
76 [label="b9_LC8_075 <= -8741.0\nmse = 0.0\nsamples = 9\nvalue = 0.9"] ;
70 -> 76 ;
77 [label="b34_LC8_07 <= -550.0\nmse = 0.0\nsamples = 2\nvalue = 1.0"] ;
76 -> 77 ;
78 [label="mse = 0.0\nsamples = 1\nvalue = 1.0"] ;
77 -> 78 ;
79 [label="mse = 0.0\nsamples = 1\nvalue = 1.0"] ;
77 -> 79 ;
80 [label="b12_LC8_07 <= 1347.5\nmse = 0.0\nsamples = 7\nvalue = 0.8"] ;
76 -> 80 ;
81 [label="b6_LC8_075 <= 6.0\nmse = 0.0\nsamples = 4\nvalue = 0.9"] ;
80 -> 81 ;
82 [label="mse = 0.0\nsamples = 1\nvalue = 0.9"] ;
81 -> 82 ;
83 [label="b6_LC8_075 <= 7.5\nmse = 0.0\nsamples = 3\nvalue = 0.9"] ;
81 -> 83 ;
84 [label="mse = 0.0\nsamples = 1\nvalue = 0.9"] ;
83 -> 84 ;
85 [label="b9_LC8_075 <= -4788.0\nmse = 0.0\nsamples = 2\nvalue = 0.9"] ;
83 -> 85 ;
86 [label="mse = 0.0\nsamples = 1\nvalue = 0.9"] ;
85 -> 86 ;
87 [label="mse = 0.0\nsamples = 1\nvalue = 0.9"] ;
85 -> 87 ;
88 [label="b12_LC8_07 <= 1359.0\nmse = 0.0\nsamples = 3\nvalue = 0.8"] ;
80 -> 88 ;
89 [label="mse = 0.0\nsamples = 1\nvalue = 0.8"] ;
88 -> 89 ;
90 [label="b24_LC8_07 <= -312.0\nmse = 0.0\nsamples = 2\nvalue = 0.8"] ;
88 -> 90 ;
91 [label="mse = 0.0\nsamples = 1\nvalue = 0.8"] ;
90 -> 91 ;
92 [label="mse = 0.0\nsamples = 1\nvalue = 0.8"] ;
90 -> 92 ;
93 [label="b27_LC8_07 <= 25.5\nmse = 0.0\nsamples = 11\nvalue = 0.6"] ;
69 -> 93 ;
94 [label="b21_LC8_07 <= 12071.5\nmse = 0.0\nsamples = 6\nvalue = 0.7"] ;
93 -> 94 ;
95 [label="b20_LC8_07 <= 26333.5\nmse = 0.0\nsamples = 4\nvalue = 0.6"] ;
94 -> 95 ;
96 [label="mse = 0.0\nsamples = 1\nvalue = 0.7"] ;
95 -> 96 ;
97 [label="b8_LC8_075 <= 1553.5\nmse = 0.0\nsamples = 3\nvalue = 0.6"] ;
95 -> 97 ;
98 [label="mse = 0.0\nsamples = 1\nvalue = 0.6"] ;
97 -> 98 ;
99 [label="b22_LC8_07 <= -185.0\nmse = 0.0\nsamples = 2\nvalue = 0.6"] ;
97 -> 99 ;
100 [label="mse = 0.0\nsamples = 1\nvalue = 0.6"] ;
99 -> 100 ;
101 [label="mse = -0.0\nsamples = 1\nvalue = 0.6"] ;
99 -> 101 ;
102 [label="b13_LC8_07 <= 2030.0\nmse = 0.0\nsamples = 2\nvalue = 0.7"] ;
94 -> 102 ;
103 [label="mse = 0.0\nsamples = 1\nvalue = 0.7"] ;
102 -> 103 ;
104 [label="mse = -0.0\nsamples = 1\nvalue = 0.8"] ;
102 -> 104 ;
105 [label="b19_LC8_07 <= -2650.0\nmse = 0.0\nsamples = 5\nvalue = 0.5"] ;
93 -> 105 ;
106 [label="b25_LC8_07 <= -6291.5\nmse = 0.0\nsamples = 3\nvalue = 0.4"] ;
105 -> 106 ;
107 [label="mse = 0.0\nsamples = 1\nvalue = 0.4"] ;
106 -> 107 ;
108 [label="b8_LC8_075 <= 1450.0\nmse = 0.0\nsamples = 2\nvalue = 0.4"] ;
106 -> 108 ;
109 [label="mse = 0.0\nsamples = 1\nvalue = 0.4"] ;
108 -> 109 ;
110 [label="mse = 0.0\nsamples = 1\nvalue = 0.4"] ;
108 -> 110 ;
111 [label="b33_LC8_07 <= 121.5\nmse = 0.0\nsamples = 2\nvalue = 0.5"] ;
105 -> 111 ;
112 [label="mse = 0.0\nsamples = 1\nvalue = 0.6"] ;
111 -> 112 ;
113 [label="mse = 0.0\nsamples = 1\nvalue = 0.5"] ;
111 -> 113 ;
114 [label="b18_LC8_07 <= 454.0\nmse = 0.1\nsamples = 34\nvalue = 1.1"] ;
68 -> 114 ;
115 [label="b31_LC8_07 <= 99.5\nmse = 0.1\nsamples = 5\nvalue = 1.5"] ;
114 -> 115 ;
116 [label="b20_LC8_07 <= 9777.0\nmse = 0.0\nsamples = 2\nvalue = 1.9"] ;
115 -> 116 ;
117 [label="mse = 0.0\nsamples = 1\nvalue = 2.0"] ;
116 -> 117 ;
118 [label="mse = 0.0\nsamples = 1\nvalue = 1.7"] ;
116 -> 118 ;
119 [label="b30_LC8_07 <= -821.5\nmse = 0.0\nsamples = 3\nvalue = 1.4"] ;
115 -> 119 ;
120 [label="mse = 0.0\nsamples = 1\nvalue = 1.1"] ;
119 -> 120 ;
121 [label="b5_LC8_075 <= 7.0\nmse = 0.0\nsamples = 2\nvalue = 1.4"] ;
119 -> 121 ;
122 [label="mse = 0.0\nsamples = 1\nvalue = 1.5"] ;
121 -> 122 ;
123 [label="mse = 0.0\nsamples = 1\nvalue = 1.4"] ;
121 -> 123 ;
124 [label="b2_LC8_075 <= 171.0\nmse = 0.1\nsamples = 29\nvalue = 1.1"] ;
114 -> 124 ;
125 [label="b29_LC8_07 <= 59.0\nmse = 0.0\nsamples = 10\nvalue = 0.9"] ;
124 -> 125 ;
126 [label="b23_LC8_07 <= -151.0\nmse = 0.0\nsamples = 2\nvalue = 0.5"] ;
125 -> 126 ;
127 [label="mse = 0.0\nsamples = 1\nvalue = 0.5"] ;
126 -> 127 ;
128 [label="mse = -0.0\nsamples = 1\nvalue = 0.6"] ;
126 -> 128 ;
129 [label="b22_LC8_07 <= -130.0\nmse = 0.0\nsamples = 8\nvalue = 0.9"] ;
125 -> 129 ;
130 [label="b18_LC8_07 <= 458.5\nmse = 0.0\nsamples = 3\nvalue = 1.0"] ;
129 -> 130 ;
131 [label="mse = 0.0\nsamples = 1\nvalue = 0.9"] ;
130 -> 131 ;
132 [label="b29_LC8_07 <= 124.0\nmse = 0.0\nsamples = 2\nvalue = 1.2"] ;
130 -> 132 ;
133 [label="mse = 0.0\nsamples = 1\nvalue = 1.1"] ;
132 -> 133 ;
134 [label="mse = 0.0\nsamples = 1\nvalue = 1.2"] ;
132 -> 134 ;
135 [label="b14_LC8_07 <= -14466.0\nmse = 0.0\nsamples = 5\nvalue = 0.8"] ;
129 -> 135 ;
136 [label="b6_LC8_075 <= 16.0\nmse = 0.0\nsamples = 2\nvalue = 0.8"] ;
135 -> 136 ;
137 [label="mse = 0.0\nsamples = 1\nvalue = 0.8"] ;
136 -> 137 ;
138 [label="mse = -0.0\nsamples = 1\nvalue = 0.8"] ;
136 -> 138 ;
139 [label="b12_LC8_07 <= 1386.5\nmse = 0.0\nsamples = 3\nvalue = 0.9"] ;
135 -> 139 ;
140 [label="b15_LC8_07 <= 11853.0\nmse = 0.0\nsamples = 2\nvalue = 0.9"] ;
139 -> 140 ;
141 [label="mse = 0.0\nsamples = 1\nvalue = 0.9"] ;
140 -> 141 ;
142 [label="mse = -0.0\nsamples = 1\nvalue = 0.9"] ;
140 -> 142 ;
143 [label="mse = 0.0\nsamples = 1\nvalue = 0.8"] ;
139 -> 143 ;
144 [label="b8_LC8_075 <= 1600.5\nmse = 0.1\nsamples = 19\nvalue = 1.2"] ;
124 -> 144 ;
145 [label="b18_LC8_07 <= 515.0\nmse = 0.0\nsamples = 17\nvalue = 1.1"] ;
144 -> 145 ;
146 [label="b7_LC8_075 <= 713.5\nmse = 0.0\nsamples = 12\nvalue = 1.2"] ;
145 -> 146 ;
147 [label="b29_LC8_07 <= 111.5\nmse = 0.0\nsamples = 3\nvalue = 1.1"] ;
146 -> 147 ;
148 [label="b15_LC8_07 <= 23983.5\nmse = 0.0\nsamples = 2\nvalue = 1.1"] ;
147 -> 148 ;
149 [label="mse = 0.0\nsamples = 1\nvalue = 1.1"] ;
148 -> 149 ;
150 [label="mse = -0.0\nsamples = 1\nvalue = 1.1"] ;
148 -> 150 ;
151 [label="mse = -0.0\nsamples = 1\nvalue = 1.0"] ;
147 -> 151 ;
152 [label="b18_LC8_07 <= 495.5\nmse = 0.0\nsamples = 9\nvalue = 1.2"] ;
146 -> 152 ;
153 [label="b29_LC8_07 <= 149.5\nmse = 0.0\nsamples = 5\nvalue = 1.3"] ;
152 -> 153 ;
154 [label="b30_LC8_07 <= -1250.0\nmse = 0.0\nsamples = 4\nvalue = 1.3"] ;
153 -> 154 ;
155 [label="mse = 0.0\nsamples = 1\nvalue = 1.3"] ;
154 -> 155 ;
156 [label="b18_LC8_07 <= 490.5\nmse = 0.0\nsamples = 3\nvalue = 1.3"] ;
154 -> 156 ;
157 [label="b14_LC8_07 <= -12138.5\nmse = 0.0\nsamples = 2\nvalue = 1.3"] ;
156 -> 157 ;
158 [label="mse = 0.0\nsamples = 1\nvalue = 1.3"] ;
157 -> 158 ;
159 [label="mse = 0.0\nsamples = 1\nvalue = 1.3"] ;
157 -> 159 ;
160 [label="mse = 0.0\nsamples = 1\nvalue = 1.2"] ;
156 -> 160 ;
161 [label="mse = 0.0\nsamples = 1\nvalue = 1.2"] ;
153 -> 161 ;
162 [label="b33_LC8_07 <= 130.5\nmse = 0.0\nsamples = 4\nvalue = 1.2"] ;
152 -> 162 ;
163 [label="mse = 0.0\nsamples = 1\nvalue = 1.2"] ;
162 -> 163 ;
164 [label="b8_LC8_075 <= 1520.0\nmse = 0.0\nsamples = 3\nvalue = 1.2"] ;
162 -> 164 ;
165 [label="b14_LC8_07 <= -18141.5\nmse = 0.0\nsamples = 2\nvalue = 1.1"] ;
164 -> 165 ;
166 [label="mse = 0.0\nsamples = 1\nvalue = 1.1"] ;
165 -> 166 ;
167 [label="mse = -0.0\nsamples = 1\nvalue = 1.1"] ;
165 -> 167 ;
168 [label="mse = -0.0\nsamples = 1\nvalue = 1.2"] ;
164 -> 168 ;
169 [label="b33_LC8_07 <= 143.5\nmse = 0.0\nsamples = 5\nvalue = 0.8"] ;
145 -> 169 ;
170 [label="b1_LC8_075 <= 136.5\nmse = 0.0\nsamples = 3\nvalue = 0.7"] ;
169 -> 170 ;
171 [label="mse = 0.0\nsamples = 1\nvalue = 0.6"] ;
170 -> 171 ;
172 [label="b35_LC8_07 <= 1049.0\nmse = 0.0\nsamples = 2\nvalue = 0.7"] ;
170 -> 172 ;
173 [label="mse = 0.0\nsamples = 1\nvalue = 0.7"] ;
172 -> 173 ;
174 [label="mse = 0.0\nsamples = 1\nvalue = 0.7"] ;
172 -> 174 ;
175 [label="b18_LC8_07 <= 521.5\nmse = 0.0\nsamples = 2\nvalue = 1.0"] ;
169 -> 175 ;
176 [label="mse = 0.0\nsamples = 1\nvalue = 1.0"] ;
175 -> 176 ;
177 [label="mse = -0.0\nsamples = 1\nvalue = 1.0"] ;
175 -> 177 ;
178 [label="b31_LC8_07 <= 233.0\nmse = 0.0\nsamples = 2\nvalue = 1.7"] ;
144 -> 178 ;
179 [label="mse = 0.0\nsamples = 1\nvalue = 1.6"] ;
178 -> 179 ;
180 [label="mse = 0.0\nsamples = 1\nvalue = 1.7"] ;
178 -> 180 ;
181 [label="b3_LC8_075 <= 42.5\nmse = 0.3\nsamples = 796\nvalue = 2.0"] ;
5 -> 181 ;
182 [label="b25_LC8_07 <= 708.5\nmse = 0.9\nsamples = 27\nvalue = 3.2"] ;
181 -> 182 ;
183 [label="b30_LC8_07 <= 3797.5\nmse = 0.4\nsamples = 15\nvalue = 2.7"] ;
182 -> 183 ;
184 [label="b12_LC8_07 <= 1199.0\nmse = 0.2\nsamples = 12\nvalue = 2.5"] ;
183 -> 184 ;
185 [label="b2_LC8_075 <= 159.0\nmse = 0.0\nsamples = 5\nvalue = 2.2"] ;
184 -> 185 ;
186 [label="b3_LC8_075 <= 13.0\nmse = 0.0\nsamples = 3\nvalue = 2.3"] ;
185 -> 186 ;
187 [label="mse = -0.0\nsamples = 1\nvalue = 2.3"] ;
186 -> 187 ;
188 [label="b8_LC8_075 <= -3285.0\nmse = 0.0\nsamples = 2\nvalue = 2.3"] ;
186 -> 188 ;
189 [label="mse = 0.0\nsamples = 1\nvalue = 2.3"] ;
188 -> 189 ;
190 [label="mse = 0.0\nsamples = 1\nvalue = 2.2"] ;
188 -> 190 ;
191 [label="b35_LC8_07 <= 863.0\nmse = 0.0\nsamples = 2\nvalue = 1.9"] ;
185 -> 191 ;
192 [label="mse = 0.0\nsamples = 1\nvalue = 1.9"] ;
191 -> 192 ;
193 [label="mse = -0.0\nsamples = 1\nvalue = 1.7"] ;
191 -> 193 ;
194 [label="b17_LC8_07 <= 1018.5\nmse = 0.1\nsamples = 7\nvalue = 2.8"] ;
184 -> 194 ;
195 [label="b13_LC8_07 <= -2088.5\nmse = 0.1\nsamples = 6\nvalue = 2.9"] ;
194 -> 195 ;
196 [label="b4_LC8_075 <= 7.0\nmse = 0.0\nsamples = 2\nvalue = 3.1"] ;
195 -> 196 ;
197 [label="mse = 0.0\nsamples = 1\nvalue = 3.2"] ;
196 -> 197 ;
198 [label="mse = -0.0\nsamples = 1\nvalue = 3.0"] ;
196 -> 198 ;
199 [label="b18_LC8_07 <= 214.0\nmse = 0.0\nsamples = 4\nvalue = 2.7"] ;
195 -> 199 ;
200 [label="mse = 0.0\nsamples = 1\nvalue = 2.6"] ;
199 -> 200 ;
201 [label="b17_LC8_07 <= 848.0\nmse = 0.0\nsamples = 3\nvalue = 2.8"] ;
199 -> 201 ;
202 [label="b2_LC8_075 <= 114.0\nmse = 0.0\nsamples = 2\nvalue = 2.8"] ;
201 -> 202 ;
203 [label="mse = 0.0\nsamples = 1\nvalue = 2.8"] ;
202 -> 203 ;
204 [label="mse = 0.0\nsamples = 1\nvalue = 2.8"] ;
202 -> 204 ;
205 [label="mse = -0.0\nsamples = 1\nvalue = 2.8"] ;
201 -> 205 ;
206 [label="mse = -0.0\nsamples = 1\nvalue = 1.7"] ;
194 -> 206 ;
207 [label="b20_LC8_07 <= -519.0\nmse = 0.3\nsamples = 3\nvalue = 3.9"] ;
183 -> 207 ;
208 [label="mse = 0.0\nsamples = 1\nvalue = 4.4"] ;
207 -> 208 ;
209 [label="b14_LC8_07 <= 24328.0\nmse = 0.0\nsamples = 2\nvalue = 3.4"] ;
207 -> 209 ;
210 [label="mse = 0.0\nsamples = 1\nvalue = 3.2"] ;
209 -> 210 ;
211 [label="mse = -0.0\nsamples = 1\nvalue = 3.5"] ;
209 -> 211 ;
212 [label="b7_LC8_075 <= 443.0\nmse = 0.6\nsamples = 12\nvalue = 4.1"] ;
182 -> 212 ;
213 [label="b13_LC8_07 <= 4986.0\nmse = 0.4\nsamples = 4\nvalue = 3.2"] ;
212 -> 213 ;
214 [label="b30_LC8_07 <= 886.5\nmse = 0.1\nsamples = 3\nvalue = 2.8"] ;
213 -> 214 ;
215 [label="mse = 0.0\nsamples = 1\nvalue = 3.3"] ;
214 -> 215 ;
216 [label="b30_LC8_07 <= 1303.0\nmse = 0.0\nsamples = 2\nvalue = 2.6"] ;
214 -> 216 ;
217 [label="mse = 0.0\nsamples = 1\nvalue = 2.6"] ;
216 -> 217 ;
218 [label="mse = 0.0\nsamples = 1\nvalue = 2.6"] ;
216 -> 218 ;
219 [label="mse = -0.0\nsamples = 1\nvalue = 4.2"] ;
213 -> 219 ;
220 [label="b25_LC8_07 <= 823.0\nmse = 0.2\nsamples = 8\nvalue = 4.5"] ;
212 -> 220 ;
221 [label="b35_LC8_07 <= 728.0\nmse = 0.0\nsamples = 4\nvalue = 4.1"] ;
220 -> 221 ;
222 [label="b7_LC8_075 <= 450.5\nmse = 0.0\nsamples = 3\nvalue = 4.1"] ;
221 -> 222 ;
223 [label="mse = 0.0\nsamples = 1\nvalue = 4.2"] ;
222 -> 223 ;
224 [label="b11_LC8_07 <= 5133.5\nmse = 0.0\nsamples = 2\nvalue = 4.1"] ;
222 -> 224 ;
225 [label="mse = 0.0\nsamples = 1\nvalue = 4.2"] ;
224 -> 225 ;
226 [label="mse = -0.0\nsamples = 1\nvalue = 4.1"] ;
224 -> 226 ;
227 [label="mse = -0.0\nsamples = 1\nvalue = 3.8"] ;
221 -> 227 ;
228 [label="b20_LC8_07 <= 2167.5\nmse = 0.0\nsamples = 4\nvalue = 4.8"] ;
220 -> 228 ;
229 [label="mse = 0.0\nsamples = 1\nvalue = 4.6"] ;
228 -> 229 ;
230 [label="b3_LC8_075 <= 38.5\nmse = 0.0\nsamples = 3\nvalue = 4.9"] ;
228 -> 230 ;
231 [label="mse = 0.0\nsamples = 1\nvalue = 4.9"] ;
230 -> 231 ;
232 [label="b18_LC8_07 <= 256.0\nmse = 0.0\nsamples = 2\nvalue = 4.9"] ;
230 -> 232 ;
233 [label="mse = 0.0\nsamples = 1\nvalue = 4.9"] ;
232 -> 233 ;
234 [label="mse = 0.0\nsamples = 1\nvalue = 4.9"] ;
232 -> 234 ;
235 [label="b8_LC8_075 <= 1053.0\nmse = 0.2\nsamples = 769\nvalue = 1.9"] ;
181 -> 235 ;
236 [label="b17_LC8_07 <= 1040.5\nmse = 0.1\nsamples = 335\nvalue = 1.7"] ;
235 -> 236 ;
237 [label="b1_LC8_075 <= 97.5\nmse = 0.0\nsamples = 191\nvalue = 1.8"] ;
236 -> 237 ;
238 [label="b26_LC8_07 <= 1449.5\nmse = 0.0\nsamples = 92\nvalue = 1.9"] ;
237 -> 238 ;
239 [label="b22_LC8_07 <= 292.0\nmse = 0.0\nsamples = 70\nvalue = 1.8"] ;
238 -> 239 ;
240 [label="b35_LC8_07 <= 782.5\nmse = 0.0\nsamples = 68\nvalue = 1.8"] ;
239 -> 240 ;
241 [label="b33_LC8_07 <= 126.0\nmse = 0.0\nsamples = 9\nvalue = 1.6"] ;
240 -> 241 ;
242 [label="mse = 0.0\nsamples = 1\nvalue = 2.0"] ;
241 -> 242 ;
243 [label="b29_LC8_07 <= 289.5\nmse = 0.0\nsamples = 8\nvalue = 1.6"] ;
241 -> 243 ;
244 [label="b10_LC8_07 <= 5698.5\nmse = 0.0\nsamples = 5\nvalue = 1.6"] ;
243 -> 244 ;
245 [label="b11_LC8_07 <= 7423.5\nmse = 0.0\nsamples = 4\nvalue = 1.6"] ;
244 -> 245 ;
246 [label="b15_LC8_07 <= 11968.5\nmse = 0.0\nsamples = 3\nvalue = 1.5"] ;
245 -> 246 ;
247 [label="b29_LC8_07 <= 273.5\nmse = 0.0\nsamples = 2\nvalue = 1.5"] ;
246 -> 247 ;
248 [label="mse = 0.0\nsamples = 1\nvalue = 1.5"] ;
247 -> 248 ;
249 [label="mse = -0.0\nsamples = 1\nvalue = 1.5"] ;
247 -> 249 ;
250 [label="mse = 0.0\nsamples = 1\nvalue = 1.5"] ;
246 -> 250 ;
251 [label="mse = 0.0\nsamples = 1\nvalue = 1.6"] ;
245 -> 251 ;
252 [label="mse = 0.0\nsamples = 1\nvalue = 1.7"] ;
244 -> 252 ;
253 [label="b3_LC8_075 <= 59.0\nmse = 0.0\nsamples = 3\nvalue = 1.7"] ;
243 -> 253 ;
254 [label="mse = 0.0\nsamples = 1\nvalue = 1.7"] ;
253 -> 254 ;
255 [label="b3_LC8_075 <= 86.0\nmse = 0.0\nsamples = 2\nvalue = 1.7"] ;
253 -> 255 ;
256 [label="mse = 0.0\nsamples = 1\nvalue = 1.7"] ;
255 -> 256 ;
257 [label="mse = 0.0\nsamples = 1\nvalue = 1.7"] ;
255 -> 257 ;
258 [label="b17_LC8_07 <= -627.5\nmse = 0.0\nsamples = 59\nvalue = 1.8"] ;
240 -> 258 ;
259 [label="b23_LC8_07 <= 157.5\nmse = 0.0\nsamples = 5\nvalue = 1.7"] ;
258 -> 259 ;
260 [label="b2_LC8_075 <= 208.0\nmse = 0.0\nsamples = 3\nvalue = 1.7"] ;
259 -> 260 ;
261 [label="b31_LC8_07 <= -640.5\nmse = 0.0\nsamples = 2\nvalue = 1.7"] ;
260 -> 261 ;
262 [label="mse = 0.0\nsamples = 1\nvalue = 1.8"] ;
261 -> 262 ;
263 [label="mse = 0.0\nsamples = 1\nvalue = 1.7"] ;
261 -> 263 ;
264 [label="mse = -0.0\nsamples = 1\nvalue = 1.7"] ;
260 -> 264 ;
265 [label="b15_LC8_07 <= 2436.0\nmse = 0.0\nsamples = 2\nvalue = 1.6"] ;
259 -> 265 ;
266 [label="mse = 0.0\nsamples = 1\nvalue = 1.6"] ;
265 -> 266 ;
267 [label="mse = 0.0\nsamples = 1\nvalue = 1.7"] ;
265 -> 267 ;
268 [label="b21_LC8_07 <= 8808.0\nmse = 0.0\nsamples = 54\nvalue = 1.8"] ;
258 -> 268 ;
269 [label="b9_LC8_075 <= -5786.0\nmse = 0.0\nsamples = 52\nvalue = 1.8"] ;
268 -> 269 ;
270 [label="b12_LC8_07 <= -1633.0\nmse = 0.0\nsamples = 12\nvalue = 1.8"] ;
269 -> 270 ;
271 [label="b18_LC8_07 <= 339.5\nmse = 0.0\nsamples = 5\nvalue = 1.7"] ;
270 -> 271 ;
272 [label="b21_LC8_07 <= 1107.0\nmse = 0.0\nsamples = 3\nvalue = 1.7"] ;
271 -> 272 ;
273 [label="b24_LC8_07 <= 288.5\nmse = 0.0\nsamples = 2\nvalue = 1.7"] ;
272 -> 273 ;
274 [label="mse = 0.0\nsamples = 1\nvalue = 1.7"] ;
273 -> 274 ;
275 [label="mse = 0.0\nsamples = 1\nvalue = 1.7"] ;
273 -> 275 ;
276 [label="mse = 0.0\nsamples = 1\nvalue = 1.7"] ;
272 -> 276 ;
277 [label="b7_LC8_075 <= -592.5\nmse = 0.0\nsamples = 2\nvalue = 1.7"] ;
271 -> 277 ;
278 [label="mse = 0.0\nsamples = 1\nvalue = 1.7"] ;
277 -> 278 ;
279 [label="mse = 0.0\nsamples = 1\nvalue = 1.7"] ;
277 -> 279 ;
280 [label="b31_LC8_07 <= -478.5\nmse = 0.0\nsamples = 7\nvalue = 1.8"] ;
270 -> 280 ;
281 [label="b19_LC8_07 <= 3812.5\nmse = 0.0\nsamples = 3\nvalue = 1.8"] ;
280 -> 281 ;
282 [label="b25_LC8_07 <= 229.5\nmse = 0.0\nsamples = 2\nvalue = 1.8"] ;
281 -> 282 ;
283 [label="mse = -0.0\nsamples = 1\nvalue = 1.8"] ;
282 -> 283 ;
284 [label="mse = 0.0\nsamples = 1\nvalue = 1.8"] ;
282 -> 284 ;
285 [label="mse = -0.0\nsamples = 1\nvalue = 1.8"] ;
281 -> 285 ;
286 [label="b10_LC8_07 <= -1944.5\nmse = 0.0\nsamples = 4\nvalue = 1.8"] ;
280 -> 286 ;
287 [label="b6_LC8_075 <= 53.5\nmse = 0.0\nsamples = 2\nvalue = 1.8"] ;
286 -> 287 ;
288 [label="mse = 0.0\nsamples = 1\nvalue = 1.8"] ;
287 -> 288 ;
289 [label="mse = -0.0\nsamples = 1\nvalue = 1.8"] ;
287 -> 289 ;
290 [label="b34_LC8_07 <= 3042.5\nmse = 0.0\nsamples = 2\nvalue = 1.8"] ;
286 -> 290 ;
291 [label="mse = 0.0\nsamples = 1\nvalue = 1.8"] ;
290 -> 291 ;
292 [label="mse = 0.0\nsamples = 1\nvalue = 1.8"] ;
290 -> 292 ;
293 [label="b14_LC8_07 <= 9452.0\nmse = 0.0\nsamples = 40\nvalue = 1.9"] ;
269 -> 293 ;
294 [label="b24_LC8_07 <= 486.5\nmse = 0.0\nsamples = 29\nvalue = 1.8"] ;
293 -> 294 ;
295 [label="b19_LC8_07 <= 2134.0\nmse = 0.0\nsamples = 18\nvalue = 1.8"] ;
294 -> 295 ;
296 [label="b32_LC8_07 <= 316.0\nmse = 0.0\nsamples = 3\nvalue = 1.7"] ;
295 -> 296 ;
297 [label="mse = 0.0\nsamples = 1\nvalue = 1.7"] ;
296 -> 297 ;
298 [label="b10_LC8_07 <= -1584.5\nmse = 0.0\nsamples = 2\nvalue = 1.7"] ;
296 -> 298 ;
299 [label="mse = 0.0\nsamples = 1\nvalue = 1.6"] ;
298 -> 299 ;
300 [label="mse = -0.0\nsamples = 1\nvalue = 1.7"] ;
298 -> 300 ;
301 [label="b21_LC8_07 <= 928.5\nmse = 0.0\nsamples = 15\nvalue = 1.8"] ;
295 -> 301 ;
302 [label="b26_LC8_07 <= 394.0\nmse = 0.0\nsamples = 5\nvalue = 1.9"] ;
301 -> 302 ;
303 [label="b22_LC8_07 <= -192.0\nmse = 0.0\nsamples = 3\nvalue = 1.9"] ;
302 -> 303 ;
304 [label="b16_LC8_07 <= 3187.5\nmse = 0.0\nsamples = 2\nvalue = 1.9"] ;
303 -> 304 ;
305 [label="mse = 0.0\nsamples = 1\nvalue = 1.9"] ;
304 -> 305 ;
306 [label="mse = -0.0\nsamples = 1\nvalue = 1.9"] ;
304 -> 306 ;
307 [label="mse = -0.0\nsamples = 1\nvalue = 1.9"] ;
303 -> 307 ;
308 [label="b19_LC8_07 <= 2234.0\nmse = 0.0\nsamples = 2\nvalue = 1.8"] ;
302 -> 308 ;
309 [label="mse = 0.0\nsamples = 1\nvalue = 1.8"] ;
308 -> 309 ;
310 [label="mse = -0.0\nsamples = 1\nvalue = 1.9"] ;
308 -> 310 ;
311 [label="b12_LC8_07 <= -1735.5\nmse = 0.0\nsamples = 10\nvalue = 1.8"] ;
301 -> 311 ;
312 [label="b11_LC8_07 <= -1740.0\nmse = 0.0\nsamples = 5\nvalue = 1.8"] ;
311 -> 312 ;
313 [label="b7_LC8_075 <= -540.0\nmse = 0.0\nsamples = 4\nvalue = 1.8"] ;
312 -> 313 ;
314 [label="b7_LC8_075 <= -555.0\nmse = 0.0\nsamples = 2\nvalue = 1.8"] ;
313 -> 314 ;
315 [label="mse = 0.0\nsamples = 1\nvalue = 1.8"] ;
314 -> 315 ;
316 [label="mse = -0.0\nsamples = 1\nvalue = 1.8"] ;
314 -> 316 ;
317 [label="b22_LC8_07 <= -225.0\nmse = 0.0\nsamples = 2\nvalue = 1.8"] ;
313 -> 317 ;
318 [label="mse = 0.0\nsamples = 1\nvalue = 1.8"] ;
317 -> 318 ;
319 [label="mse = -0.0\nsamples = 1\nvalue = 1.8"] ;
317 -> 319 ;
320 [label="mse = 0.0\nsamples = 1\nvalue = 1.9"] ;
312 -> 320 ;
321 [label="b21_LC8_07 <= 983.0\nmse = 0.0\nsamples = 5\nvalue = 1.8"] ;
311 -> 321 ;
322 [label="b31_LC8_07 <= -522.0\nmse = 0.0\nsamples = 2\nvalue = 1.7"] ;
321 -> 322 ;
323 [label="mse = 0.0\nsamples = 1\nvalue = 1.7"] ;
322 -> 323 ;
324 [label="mse = 0.0\nsamples = 1\nvalue = 1.7"] ;
322 -> 324 ;
325 [label="b32_LC8_07 <= 327.5\nmse = 0.0\nsamples = 3\nvalue = 1.8"] ;
321 -> 325 ;
326 [label="b18_LC8_07 <= 397.0\nmse = 0.0\nsamples = 2\nvalue = 1.8"] ;
325 -> 326 ;
327 [label="mse = 0.0\nsamples = 1\nvalue = 1.8"] ;
326 -> 327 ;
328 [label="mse = -0.0\nsamples = 1\nvalue = 1.8"] ;
326 -> 328 ;
329 [label="mse = -0.0\nsamples = 1\nvalue = 1.8"] ;
325 -> 329 ;
330 [label="b35_LC8_07 <= 871.5\nmse = 0.0\nsamples = 11\nvalue = 1.9"] ;
294 -> 330 ;
331 [label="b16_LC8_07 <= 3016.5\nmse = 0.0\nsamples = 5\nvalue = 1.9"] ;
330 -> 331 ;
332 [label="b8_LC8_075 <= -2090.5\nmse = 0.0\nsamples = 3\nvalue = 1.9"] ;
331 -> 332 ;
333 [label="b23_LC8_07 <= 151.0\nmse = 0.0\nsamples = 2\nvalue = 1.9"] ;
332 -> 333 ;
334 [label="mse = 0.0\nsamples = 1\nvalue = 1.9"] ;
333 -> 334 ;
335 [label="mse = -0.0\nsamples = 1\nvalue = 1.9"] ;
333 -> 335 ;
336 [label="mse = -0.0\nsamples = 1\nvalue = 1.9"] ;
332 -> 336 ;
337 [label="b13_LC8_07 <= 4133.0\nmse = 0.0\nsamples = 2\nvalue = 1.9"] ;
331 -> 337 ;
338 [label="mse = 0.0\nsamples = 1\nvalue = 1.9"] ;
337 -> 338 ;
339 [label="mse = -0.0\nsamples = 1\nvalue = 1.9"] ;
337 -> 339 ;
340 [label="b27_LC8_07 <= -628.5\nmse = 0.0\nsamples = 6\nvalue = 1.9"] ;
330 -> 340 ;
341 [label="b18_LC8_07 <= 277.5\nmse = 0.0\nsamples = 3\nvalue = 1.8"] ;
340 -> 341 ;
342 [label="mse = 0.0\nsamples = 1\nvalue = 1.8"] ;
341 -> 342 ;
343 [label="b32_LC8_07 <= 346.0\nmse = 0.0\nsamples = 2\nvalue = 1.9"] ;
341 -> 343 ;
344 [label="mse = 0.0\nsamples = 1\nvalue = 1.9"] ;
343 -> 344 ;
345 [label="mse = 0.0\nsamples = 1\nvalue = 1.9"] ;
343 -> 345 ;
346 [label="b19_LC8_07 <= 1870.0\nmse = 0.0\nsamples = 3\nvalue = 1.9"] ;
340 -> 346 ;
347 [label="mse = 0.0\nsamples = 1\nvalue = 1.9"] ;
346 -> 347 ;
348 [label="b5_LC8_075 <= 69.5\nmse = 0.0\nsamples = 2\nvalue = 1.9"] ;
346 -> 348 ;
349 [label="mse = 0.0\nsamples = 1\nvalue = 1.9"] ;
348 -> 349 ;
350 [label="mse = 0.0\nsamples = 1\nvalue = 1.9"] ;
348 -> 350 ;
351 [label="b24_LC8_07 <= 190.0\nmse = 0.0\nsamples = 11\nvalue = 1.9"] ;
293 -> 351 ;
352 [label="b1_LC8_075 <= 96.5\nmse = 0.0\nsamples = 7\nvalue = 1.9"] ;
351 -> 352 ;
353 [label="b12_LC8_07 <= 2258.5\nmse = 0.0\nsamples = 6\nvalue = 1.9"] ;
352 -> 353 ;
354 [label="mse = 0.0\nsamples = 1\nvalue = 2.0"] ;
353 -> 354 ;
355 [label="b23_LC8_07 <= 80.0\nmse = 0.0\nsamples = 5\nvalue = 1.9"] ;
353 -> 355 ;
356 [label="b6_LC8_075 <= 11.5\nmse = 0.0\nsamples = 3\nvalue = 1.9"] ;
355 -> 356 ;
357 [label="mse = 0.0\nsamples = 1\nvalue = 1.9"] ;
356 -> 357 ;
358 [label="b21_LC8_07 <= 7179.5\nmse = 0.0\nsamples = 2\nvalue = 1.9"] ;
356 -> 358 ;
359 [label="mse = 0.0\nsamples = 1\nvalue = 1.9"] ;
358 -> 359 ;
360 [label="mse = 0.0\nsamples = 1\nvalue = 1.9"] ;
358 -> 360 ;
361 [label="b13_LC8_07 <= 2289.5\nmse = 0.0\nsamples = 2\nvalue = 1.9"] ;
355 -> 361 ;
362 [label="mse = 0.0\nsamples = 1\nvalue = 1.9"] ;
361 -> 362 ;
363 [label="mse = 0.0\nsamples = 1\nvalue = 2.0"] ;
361 -> 363 ;
364 [label="mse = 0.0\nsamples = 1\nvalue = 1.8"] ;
352 -> 364 ;
365 [label="b23_LC8_07 <= 80.0\nmse = 0.0\nsamples = 4\nvalue = 2.0"] ;
351 -> 365 ;
366 [label="mse = 0.0\nsamples = 1\nvalue = 2.1"] ;
365 -> 366 ;
367 [label="b30_LC8_07 <= 959.5\nmse = 0.0\nsamples = 3\nvalue = 2.0"] ;
365 -> 367 ;
368 [label="mse = 0.0\nsamples = 1\nvalue = 2.0"] ;
367 -> 368 ;
369 [label="b29_LC8_07 <= 602.5\nmse = 0.0\nsamples = 2\nvalue = 2.0"] ;
367 -> 369 ;
370 [label="mse = 0.0\nsamples = 1\nvalue = 2.0"] ;
369 -> 370 ;
371 [label="mse = 0.0\nsamples = 1\nvalue = 2.0"] ;
369 -> 371 ;
372 [label="b24_LC8_07 <= 44.0\nmse = 0.0\nsamples = 2\nvalue = 1.6"] ;
268 -> 372 ;
373 [label="mse = 0.0\nsamples = 1\nvalue = 1.6"] ;
372 -> 373 ;
374 [label="mse = 0.0\nsamples = 1\nvalue = 1.6"] ;
372 -> 374 ;
375 [label="b25_LC8_07 <= 966.5\nmse = 0.0\nsamples = 2\nvalue = 2.2"] ;
239 -> 375 ;
376 [label="mse = 0.0\nsamples = 1\nvalue = 2.1"] ;
375 -> 376 ;
377 [label="mse = 0.0\nsamples = 1\nvalue = 2.3"] ;
375 -> 377 ;
378 [label="b22_LC8_07 <= 228.5\nmse = 0.0\nsamples = 22\nvalue = 2.0"] ;
238 -> 378 ;
379 [label="b12_LC8_07 <= 2213.5\nmse = 0.0\nsamples = 15\nvalue = 2.0"] ;
378 -> 379 ;
380 [label="b10_LC8_07 <= 6821.5\nmse = 0.0\nsamples = 2\nvalue = 2.3"] ;
379 -> 380 ;
381 [label="mse = 0.0\nsamples = 1\nvalue = 2.3"] ;
380 -> 381 ;
382 [label="mse = -0.0\nsamples = 1\nvalue = 2.4"] ;
380 -> 382 ;
383 [label="b17_LC8_07 <= 968.0\nmse = 0.0\nsamples = 13\nvalue = 2.0"] ;
379 -> 383 ;
384 [label="b22_LC8_07 <= 194.5\nmse = 0.0\nsamples = 2\nvalue = 1.8"] ;
383 -> 384 ;
385 [label="mse = 0.0\nsamples = 1\nvalue = 2.0"] ;
384 -> 385 ;
386 [label="mse = -0.0\nsamples = 1\nvalue = 1.7"] ;
384 -> 386 ;
387 [label="b8_LC8_075 <= 994.5\nmse = 0.0\nsamples = 11\nvalue = 2.0"] ;
383 -> 387 ;
388 [label="b18_LC8_07 <= 453.5\nmse = 0.0\nsamples = 4\nvalue = 2.0"] ;
387 -> 388 ;
389 [label="b26_LC8_07 <= 1680.5\nmse = 0.0\nsamples = 3\nvalue = 2.0"] ;
388 -> 389 ;
390 [label="b8_LC8_075 <= 978.5\nmse = 0.0\nsamples = 2\nvalue = 2.0"] ;
389 -> 390 ;
391 [label="mse = 0.0\nsamples = 1\nvalue = 2.0"] ;
390 -> 391 ;
392 [label="mse = 0.0\nsamples = 1\nvalue = 2.0"] ;
390 -> 392 ;
393 [label="mse = 0.0\nsamples = 1\nvalue = 2.0"] ;
389 -> 393 ;
394 [label="mse = -0.0\nsamples = 1\nvalue = 1.9"] ;
388 -> 394 ;
395 [label="b28_LC8_07 <= 61.5\nmse = 0.0\nsamples = 7\nvalue = 2.1"] ;
387 -> 395 ;
396 [label="b30_LC8_07 <= 702.0\nmse = 0.0\nsamples = 2\nvalue = 2.0"] ;
395 -> 396 ;
397 [label="mse = 0.0\nsamples = 1\nvalue = 2.0"] ;
396 -> 397 ;
398 [label="mse = 0.0\nsamples = 1\nvalue = 2.0"] ;
396 -> 398 ;
399 [label="b17_LC8_07 <= 984.0\nmse = 0.0\nsamples = 5\nvalue = 2.1"] ;
395 -> 399 ;
400 [label="b29_LC8_07 <= 162.0\nmse = 0.0\nsamples = 2\nvalue = 2.1"] ;
399 -> 400 ;
401 [label="mse = 0.0\nsamples = 1\nvalue = 2.1"] ;
400 -> 401 ;
402 [label="mse = -0.0\nsamples = 1\nvalue = 2.1"] ;
400 -> 402 ;
403 [label="b5_LC8_075 <= 17.0\nmse = 0.0\nsamples = 3\nvalue = 2.1"] ;
399 -> 403 ;
404 [label="b10_LC8_07 <= 6628.5\nmse = 0.0\nsamples = 2\nvalue = 2.1"] ;
403 -> 404 ;
405 [label="mse = 0.0\nsamples = 1\nvalue = 2.2"] ;
404 -> 405 ;
406 [label="mse = 0.0\nsamples = 1\nvalue = 2.1"] ;
404 -> 406 ;
407 [label="mse = -0.0\nsamples = 1\nvalue = 2.1"] ;
403 -> 407 ;
408 [label="b24_LC8_07 <= 236.5\nmse = 0.1\nsamples = 7\nvalue = 1.8"] ;
378 -> 408 ;
409 [label="mse = 0.0\nsamples = 1\nvalue = 1.3"] ;
408 -> 409 ;
410 [label="b6_LC8_075 <= 10.0\nmse = 0.0\nsamples = 6\nvalue = 1.9"] ;
408 -> 410 ;
411 [label="b10_LC8_07 <= 2933.5\nmse = 0.0\nsamples = 2\nvalue = 2.1"] ;
410 -> 411 ;
412 [label="mse = 0.0\nsamples = 1\nvalue = 2.1"] ;
411 -> 412 ;
413 [label="mse = 0.0\nsamples = 1\nvalue = 2.1"] ;
411 -> 413 ;
414 [label="b1_LC8_075 <= 92.5\nmse = 0.0\nsamples = 4\nvalue = 1.8"] ;
410 -> 414 ;
415 [label="b2_LC8_075 <= 171.5\nmse = 0.0\nsamples = 2\nvalue = 1.7"] ;
414 -> 415 ;
416 [label="mse = 0.0\nsamples = 1\nvalue = 1.7"] ;
415 -> 416 ;
417 [label="mse = 0.0\nsamples = 1\nvalue = 1.7"] ;
415 -> 417 ;
418 [label="b10_LC8_07 <= 5309.5\nmse = 0.0\nsamples = 2\nvalue = 2.0"] ;
414 -> 418 ;
419 [label="mse = 0.0\nsamples = 1\nvalue = 1.9"] ;
418 -> 419 ;
420 [label="mse = -0.0\nsamples = 1\nvalue = 2.1"] ;
418 -> 420 ;
421 [label="b35_LC8_07 <= 862.0\nmse = 0.0\nsamples = 99\nvalue = 1.7"] ;
237 -> 421 ;
422 [label="b12_LC8_07 <= 2549.0\nmse = 0.0\nsamples = 86\nvalue = 1.8"] ;
421 -> 422 ;
423 [label="b4_LC8_075 <= 19.5\nmse = 0.0\nsamples = 84\nvalue = 1.8"] ;
422 -> 423 ;
424 [label="b33_LC8_07 <= 108.5\nmse = 0.0\nsamples = 7\nvalue = 1.9"] ;
423 -> 424 ;
425 [label="b19_LC8_07 <= 6684.0\nmse = 0.0\nsamples = 4\nvalue = 2.0"] ;
424 -> 425 ;
426 [label="b35_LC8_07 <= 682.5\nmse = 0.0\nsamples = 2\nvalue = 2.0"] ;
425 -> 426 ;
427 [label="mse = 0.0\nsamples = 1\nvalue = 2.0"] ;
426 -> 427 ;
428 [label="mse = -0.0\nsamples = 1\nvalue = 2.0"] ;
426 -> 428 ;
429 [label="b33_LC8_07 <= 82.5\nmse = 0.0\nsamples = 2\nvalue = 1.9"] ;
425 -> 429 ;
430 [label="mse = -0.0\nsamples = 1\nvalue = 1.9"] ;
429 -> 430 ;
431 [label="mse = 0.0\nsamples = 1\nvalue = 2.0"] ;
429 -> 431 ;
432 [label="b26_LC8_07 <= 1522.5\nmse = 0.0\nsamples = 3\nvalue = 1.8"] ;
424 -> 432 ;
433 [label="b3_LC8_075 <= 99.5\nmse = 0.0\nsamples = 2\nvalue = 1.8"] ;
432 -> 433 ;
434 [label="mse = 0.0\nsamples = 1\nvalue = 1.8"] ;
433 -> 434 ;
435 [label="mse = -0.0\nsamples = 1\nvalue = 1.8"] ;
433 -> 435 ;
436 [label="mse = 0.0\nsamples = 1\nvalue = 1.9"] ;
432 -> 436 ;
437 [label="b24_LC8_07 <= 198.5\nmse = 0.0\nsamples = 77\nvalue = 1.8"] ;
423 -> 437 ;
438 [label="b4_LC8_075 <= 20.5\nmse = 0.0\nsamples = 14\nvalue = 1.7"] ;
437 -> 438 ;
439 [label="b13_LC8_07 <= 2316.5\nmse = 0.0\nsamples = 7\nvalue = 1.8"] ;
438 -> 439 ;
440 [label="b24_LC8_07 <= 149.0\nmse = 0.0\nsamples = 3\nvalue = 1.7"] ;
439 -> 440 ;
441 [label="mse = 0.0\nsamples = 1\nvalue = 1.8"] ;
440 -> 441 ;
442 [label="b28_LC8_07 <= 60.5\nmse = 0.0\nsamples = 2\nvalue = 1.7"] ;
440 -> 442 ;
443 [label="mse = -0.0\nsamples = 1\nvalue = 1.7"] ;
442 -> 443 ;
444 [label="mse = 0.0\nsamples = 1\nvalue = 1.7"] ;
442 -> 444 ;
445 [label="b13_LC8_07 <= 2522.5\nmse = 0.0\nsamples = 4\nvalue = 1.9"] ;
439 -> 445 ;
446 [label="b31_LC8_07 <= 103.0\nmse = 0.0\nsamples = 3\nvalue = 1.8"] ;
445 -> 446 ;
447 [label="b13_LC8_07 <= 2350.0\nmse = 0.0\nsamples = 2\nvalue = 1.8"] ;
446 -> 447 ;
448 [label="mse = 0.0\nsamples = 1\nvalue = 1.8"] ;
447 -> 448 ;
449 [label="mse = -0.0\nsamples = 1\nvalue = 1.8"] ;
447 -> 449 ;
450 [label="mse = 0.0\nsamples = 1\nvalue = 1.9"] ;
446 -> 450 ;
451 [label="mse = 0.0\nsamples = 1\nvalue = 1.9"] ;
445 -> 451 ;
452 [label="b2_LC8_075 <= 309.5\nmse = 0.0\nsamples = 7\nvalue = 1.5"] ;
438 -> 452 ;
453 [label="b31_LC8_07 <= 112.5\nmse = 0.0\nsamples = 2\nvalue = 1.6"] ;
452 -> 453 ;
454 [label="mse = 0.0\nsamples = 1\nvalue = 1.6"] ;
453 -> 454 ;
455 [label="mse = 0.0\nsamples = 1\nvalue = 1.6"] ;
453 -> 455 ;
456 [label="b3_LC8_075 <= 137.5\nmse = 0.0\nsamples = 5\nvalue = 1.5"] ;
452 -> 456 ;
457 [label="b20_LC8_07 <= 7314.5\nmse = 0.0\nsamples = 4\nvalue = 1.5"] ;
456 -> 457 ;
458 [label="b35_LC8_07 <= 548.0\nmse = 0.0\nsamples = 3\nvalue = 1.5"] ;
457 -> 458 ;
459 [label="mse = 0.0\nsamples = 1\nvalue = 1.5"] ;
458 -> 459 ;
460 [label="b5_LC8_075 <= 21.0\nmse = 0.0\nsamples = 2\nvalue = 1.5"] ;
458 -> 460 ;
461 [label="mse = 0.0\nsamples = 1\nvalue = 1.5"] ;
460 -> 461 ;
462 [label="mse = 0.0\nsamples = 1\nvalue = 1.5"] ;
460 -> 462 ;
463 [label="mse = -0.0\nsamples = 1\nvalue = 1.5"] ;
457 -> 463 ;
464 [label="mse = -0.0\nsamples = 1\nvalue = 1.5"] ;
456 -> 464 ;
465 [label="b29_LC8_07 <= 234.0\nmse = 0.0\nsamples = 63\nvalue = 1.8"] ;
437 -> 465 ;
466 [label="b12_LC8_07 <= 2022.5\nmse = 0.0\nsamples = 49\nvalue = 1.8"] ;
465 -> 466 ;
467 [label="b8_LC8_075 <= 1040.5\nmse = 0.0\nsamples = 29\nvalue = 1.8"] ;
466 -> 467 ;
468 [label="b7_LC8_075 <= 533.0\nmse = 0.0\nsamples = 25\nvalue = 1.7"] ;
467 -> 468 ;
469 [label="b25_LC8_07 <= 1296.0\nmse = 0.0\nsamples = 24\nvalue = 1.7"] ;
468 -> 469 ;
470 [label="b31_LC8_07 <= 146.5\nmse = 0.0\nsamples = 7\nvalue = 1.8"] ;
469 -> 470 ;
471 [label="b3_LC8_075 <= 153.5\nmse = 0.0\nsamples = 6\nvalue = 1.8"] ;
470 -> 471 ;
472 [label="b26_LC8_07 <= 2059.0\nmse = 0.0\nsamples = 3\nvalue = 1.8"] ;
471 -> 472 ;
473 [label="mse = 0.0\nsamples = 1\nvalue = 1.8"] ;
472 -> 473 ;
474 [label="b25_LC8_07 <= 1256.0\nmse = 0.0\nsamples = 2\nvalue = 1.8"] ;
472 -> 474 ;
475 [label="mse = 0.0\nsamples = 1\nvalue = 1.8"] ;
474 -> 475 ;
476 [label="mse = -0.0\nsamples = 1\nvalue = 1.8"] ;
474 -> 476 ;
477 [label="b11_LC8_07 <= 7263.0\nmse = 0.0\nsamples = 3\nvalue = 1.7"] ;
471 -> 477 ;
478 [label="mse = 0.0\nsamples = 1\nvalue = 1.7"] ;
477 -> 478 ;
479 [label="b35_LC8_07 <= 598.0\nmse = 0.0\nsamples = 2\nvalue = 1.7"] ;
477 -> 479 ;
480 [label="mse = 0.0\nsamples = 1\nvalue = 1.7"] ;
479 -> 480 ;
481 [label="mse = 0.0\nsamples = 1\nvalue = 1.7"] ;
479 -> 481 ;
482 [label="mse = 0.0\nsamples = 1\nvalue = 1.9"] ;
470 -> 482 ;
483 [label="b2_LC8_075 <= 309.5\nmse = 0.0\nsamples = 17\nvalue = 1.7"] ;
469 -> 483 ;
484 [label="b1_LC8_075 <= 158.0\nmse = 0.0\nsamples = 15\nvalue = 1.7"] ;
483 -> 484 ;
485 [label="b33_LC8_07 <= 142.0\nmse = 0.0\nsamples = 14\nvalue = 1.7"] ;
484 -> 485 ;
486 [label="b12_LC8_07 <= 1999.5\nmse = 0.0\nsamples = 9\nvalue = 1.7"] ;
485 -> 486 ;
487 [label="b15_LC8_07 <= 9311.0\nmse = 0.0\nsamples = 6\nvalue = 1.7"] ;
486 -> 487 ;
488 [label="mse = 0.0\nsamples = 1\nvalue = 1.7"] ;
487 -> 488 ;
489 [label="b25_LC8_07 <= 1407.0\nmse = 0.0\nsamples = 5\nvalue = 1.7"] ;
487 -> 489 ;
490 [label="b12_LC8_07 <= 1987.0\nmse = 0.0\nsamples = 3\nvalue = 1.7"] ;
489 -> 490 ;
491 [label="b24_LC8_07 <= 248.5\nmse = 0.0\nsamples = 2\nvalue = 1.7"] ;
490 -> 491 ;
492 [label="mse = 0.0\nsamples = 1\nvalue = 1.7"] ;
491 -> 492 ;
493 [label="mse = 0.0\nsamples = 1\nvalue = 1.7"] ;
491 -> 493 ;
494 [label="mse = -0.0\nsamples = 1\nvalue = 1.7"] ;
490 -> 494 ;
495 [label="b32_LC8_07 <= 59.5\nmse = 0.0\nsamples = 2\nvalue = 1.7"] ;
489 -> 495 ;
496 [label="mse = 0.0\nsamples = 1\nvalue = 1.7"] ;
495 -> 496 ;
497 [label="mse = 0.0\nsamples = 1\nvalue = 1.7"] ;
495 -> 497 ;
498 [label="b25_LC8_07 <= 1554.5\nmse = 0.0\nsamples = 3\nvalue = 1.7"] ;
486 -> 498 ;
499 [label="b32_LC8_07 <= 66.0\nmse = 0.0\nsamples = 2\nvalue = 1.7"] ;
498 -> 499 ;
500 [label="mse = 0.0\nsamples = 1\nvalue = 1.7"] ;
499 -> 500 ;
501 [label="mse = 0.0\nsamples = 1\nvalue = 1.7"] ;
499 -> 501 ;
502 [label="mse = -0.0\nsamples = 1\nvalue = 1.8"] ;
498 -> 502 ;
503 [label="b2_LC8_075 <= 308.0\nmse = 0.0\nsamples = 5\nvalue = 1.7"] ;
485 -> 503 ;
504 [label="b20_LC8_07 <= 4510.0\nmse = 0.0\nsamples = 4\nvalue = 1.8"] ;
503 -> 504 ;
505 [label="mse = 0.0\nsamples = 1\nvalue = 1.8"] ;
504 -> 505 ;
506 [label="b4_LC8_075 <= 44.5\nmse = 0.0\nsamples = 3\nvalue = 1.7"] ;
504 -> 506 ;
507 [label="b20_LC8_07 <= 4898.0\nmse = 0.0\nsamples = 2\nvalue = 1.7"] ;
506 -> 507 ;
508 [label="mse = 0.0\nsamples = 1\nvalue = 1.7"] ;
507 -> 508 ;
509 [label="mse = -0.0\nsamples = 1\nvalue = 1.7"] ;
507 -> 509 ;
510 [label="mse = 0.0\nsamples = 1\nvalue = 1.8"] ;
506 -> 510 ;
511 [label="mse = 0.0\nsamples = 1\nvalue = 1.7"] ;
503 -> 511 ;
512 [label="mse = -0.0\nsamples = 1\nvalue = 1.6"] ;
484 -> 512 ;
513 [label="b33_LC8_07 <= 148.0\nmse = 0.0\nsamples = 2\nvalue = 1.6"] ;
483 -> 513 ;
514 [label="mse = 0.0\nsamples = 1\nvalue = 1.7"] ;
513 -> 514 ;
515 [label="mse = 0.0\nsamples = 1\nvalue = 1.6"] ;
513 -> 515 ;
516 [label="mse = -0.0\nsamples = 1\nvalue = 1.9"] ;
468 -> 516 ;
517 [label="b34_LC8_07 <= 441.0\nmse = 0.0\nsamples = 4\nvalue = 1.8"] ;
467 -> 517 ;
518 [label="b33_LC8_07 <= 108.0\nmse = 0.0\nsamples = 2\nvalue = 1.9"] ;
517 -> 518 ;
519 [label="mse = 0.0\nsamples = 1\nvalue = 1.9"] ;
518 -> 519 ;
520 [label="mse = -0.0\nsamples = 1\nvalue = 1.9"] ;
518 -> 520 ;
521 [label="b27_LC8_07 <= 158.5\nmse = 0.0\nsamples = 2\nvalue = 1.8"] ;
517 -> 521 ;
522 [label="mse = 0.0\nsamples = 1\nvalue = 1.8"] ;
521 -> 522 ;
523 [label="mse = 0.0\nsamples = 1\nvalue = 1.8"] ;
521 -> 523 ;
524 [label="b35_LC8_07 <= 816.5\nmse = 0.0\nsamples = 20\nvalue = 1.8"] ;
466 -> 524 ;
525 [label="b12_LC8_07 <= 2087.5\nmse = 0.0\nsamples = 17\nvalue = 1.8"] ;
524 -> 525 ;
526 [label="b35_LC8_07 <= 687.0\nmse = 0.0\nsamples = 12\nvalue = 1.8"] ;
525 -> 526 ;
527 [label="b11_LC8_07 <= 7823.5\nmse = 0.0\nsamples = 6\nvalue = 1.9"] ;
526 -> 527 ;
528 [label="b25_LC8_07 <= 1371.0\nmse = 0.0\nsamples = 2\nvalue = 1.9"] ;
527 -> 528 ;
529 [label="mse = 0.0\nsamples = 1\nvalue = 1.9"] ;
528 -> 529 ;
530 [label="mse = 0.0\nsamples = 1\nvalue = 1.9"] ;
528 -> 530 ;
531 [label="b15_LC8_07 <= 10661.5\nmse = 0.0\nsamples = 4\nvalue = 1.9"] ;
527 -> 531 ;
532 [label="b14_LC8_07 <= 7866.5\nmse = 0.0\nsamples = 2\nvalue = 1.9"] ;
531 -> 532 ;
533 [label="mse = 0.0\nsamples = 1\nvalue = 1.9"] ;
532 -> 533 ;
534 [label="mse = -0.0\nsamples = 1\nvalue = 1.9"] ;
532 -> 534 ;
535 [label="b22_LC8_07 <= 266.0\nmse = 0.0\nsamples = 2\nvalue = 1.9"] ;
531 -> 535 ;
536 [label="mse = 0.0\nsamples = 1\nvalue = 1.8"] ;
535 -> 536 ;
537 [label="mse = -0.0\nsamples = 1\nvalue = 1.9"] ;
535 -> 537 ;
538 [label="b23_LC8_07 <= 150.5\nmse = 0.0\nsamples = 6\nvalue = 1.8"] ;
526 -> 538 ;
539 [label="b5_LC8_075 <= 23.5\nmse = 0.0\nsamples = 5\nvalue = 1.8"] ;
538 -> 539 ;
540 [label="mse = 0.0\nsamples = 1\nvalue = 1.8"] ;
539 -> 540 ;
541 [label="b3_LC8_075 <= 146.5\nmse = 0.0\nsamples = 4\nvalue = 1.8"] ;
539 -> 541 ;
542 [label="mse = 0.0\nsamples = 1\nvalue = 1.8"] ;
541 -> 542 ;
543 [label="b1_LC8_075 <= 150.0\nmse = 0.0\nsamples = 3\nvalue = 1.8"] ;
541 -> 543 ;
544 [label="mse = 0.0\nsamples = 1\nvalue = 1.8"] ;
543 -> 544 ;
545 [label="b34_LC8_07 <= 434.0\nmse = 0.0\nsamples = 2\nvalue = 1.8"] ;
543 -> 545 ;
546 [label="mse = 0.0\nsamples = 1\nvalue = 1.8"] ;
545 -> 546 ;
547 [label="mse = -0.0\nsamples = 1\nvalue = 1.8"] ;
545 -> 547 ;
548 [label="mse = 0.0\nsamples = 1\nvalue = 1.8"] ;
538 -> 548 ;
549 [label="b6_LC8_075 <= 14.5\nmse = 0.0\nsamples = 5\nvalue = 1.7"] ;
525 -> 549 ;
550 [label="b20_LC8_07 <= 7147.0\nmse = 0.0\nsamples = 3\nvalue = 1.7"] ;
549 -> 550 ;
551 [label="b7_LC8_075 <= 430.5\nmse = 0.0\nsamples = 2\nvalue = 1.7"] ;
550 -> 551 ;
552 [label="mse = 0.0\nsamples = 1\nvalue = 1.7"] ;
551 -> 552 ;
553 [label="mse = 0.0\nsamples = 1\nvalue = 1.7"] ;
551 -> 553 ;
554 [label="mse = -0.0\nsamples = 1\nvalue = 1.7"] ;
550 -> 554 ;
555 [label="b23_LC8_07 <= 133.0\nmse = 0.0\nsamples = 2\nvalue = 1.6"] ;
549 -> 555 ;
556 [label="mse = 0.0\nsamples = 1\nvalue = 1.6"] ;
555 -> 556 ;
557 [label="mse = -0.0\nsamples = 1\nvalue = 1.6"] ;
555 -> 557 ;
558 [label="b5_LC8_075 <= 16.0\nmse = 0.0\nsamples = 3\nvalue = 1.9"] ;
524 -> 558 ;
559 [label="mse = 0.0\nsamples = 1\nvalue = 2.0"] ;
558 -> 559 ;
560 [label="b3_LC8_075 <= 121.0\nmse = 0.0\nsamples = 2\nvalue = 1.9"] ;
558 -> 560 ;
561 [label="mse = 0.0\nsamples = 1\nvalue = 1.9"] ;
560 -> 561 ;
562 [label="mse = -0.0\nsamples = 1\nvalue = 1.9"] ;
560 -> 562 ;
563 [label="b21_LC8_07 <= 5180.5\nmse = 0.0\nsamples = 14\nvalue = 1.9"] ;
465 -> 563 ;
564 [label="b25_LC8_07 <= 1021.5\nmse = 0.0\nsamples = 4\nvalue = 1.7"] ;
563 -> 564 ;
565 [label="mse = 0.0\nsamples = 1\nvalue = 1.6"] ;
564 -> 565 ;
566 [label="b7_LC8_075 <= 480.5\nmse = 0.0\nsamples = 3\nvalue = 1.8"] ;
564 -> 566 ;
567 [label="mse = 0.0\nsamples = 1\nvalue = 1.8"] ;
566 -> 567 ;
568 [label="b30_LC8_07 <= 883.5\nmse = 0.0\nsamples = 2\nvalue = 1.7"] ;
566 -> 568 ;
569 [label="mse = 0.0\nsamples = 1\nvalue = 1.7"] ;
568 -> 569 ;
570 [label="mse = 0.0\nsamples = 1\nvalue = 1.7"] ;
568 -> 570 ;
571 [label="b17_LC8_07 <= 967.5\nmse = 0.0\nsamples = 10\nvalue = 1.9"] ;
563 -> 571 ;
572 [label="b31_LC8_07 <= 166.0\nmse = 0.0\nsamples = 2\nvalue = 2.1"] ;
571 -> 572 ;
573 [label="mse = 0.0\nsamples = 1\nvalue = 2.2"] ;
572 -> 573 ;
574 [label="mse = 0.0\nsamples = 1\nvalue = 1.9"] ;
572 -> 574 ;
575 [label="b2_LC8_075 <= 299.5\nmse = 0.0\nsamples = 8\nvalue = 1.9"] ;
571 -> 575 ;
576 [label="b29_LC8_07 <= 256.5\nmse = 0.0\nsamples = 3\nvalue = 2.0"] ;
575 -> 576 ;
577 [label="b10_LC8_07 <= 4014.5\nmse = 0.0\nsamples = 2\nvalue = 2.0"] ;
576 -> 577 ;
578 [label="mse = 0.0\nsamples = 1\nvalue = 2.0"] ;
577 -> 578 ;
579 [label="mse = -0.0\nsamples = 1\nvalue = 1.9"] ;
577 -> 579 ;
580 [label="mse = -0.0\nsamples = 1\nvalue = 2.0"] ;
576 -> 580 ;
581 [label="b28_LC8_07 <= 134.0\nmse = 0.0\nsamples = 5\nvalue = 1.9"] ;
575 -> 581 ;
582 [label="b1_LC8_075 <= 147.5\nmse = 0.0\nsamples = 4\nvalue = 1.9"] ;
581 -> 582 ;
583 [label="mse = 0.0\nsamples = 1\nvalue = 1.9"] ;
582 -> 583 ;
584 [label="b16_LC8_07 <= 14147.0\nmse = 0.0\nsamples = 3\nvalue = 1.9"] ;
582 -> 584 ;
585 [label="mse = 0.0\nsamples = 1\nvalue = 1.9"] ;
584 -> 585 ;
586 [label="b21_LC8_07 <= 7000.0\nmse = 0.0\nsamples = 2\nvalue = 1.9"] ;
584 -> 586 ;
587 [label="mse = 0.0\nsamples = 1\nvalue = 1.9"] ;
586 -> 587 ;
588 [label="mse = -0.0\nsamples = 1\nvalue = 1.9"] ;
586 -> 588 ;
589 [label="mse = -0.0\nsamples = 1\nvalue = 1.9"] ;
581 -> 589 ;
590 [label="b4_LC8_075 <= 22.5\nmse = 0.0\nsamples = 2\nvalue = 1.5"] ;
422 -> 590 ;
591 [label="mse = 0.0\nsamples = 1\nvalue = 1.5"] ;
590 -> 591 ;
592 [label="mse = -0.0\nsamples = 1\nvalue = 1.6"] ;
590 -> 592 ;
593 [label="b8_LC8_075 <= 995.5\nmse = 0.1\nsamples = 13\nvalue = 1.5"] ;
421 -> 593 ;
594 [label="b2_LC8_075 <= 246.0\nmse = 0.0\nsamples = 3\nvalue = 1.8"] ;
593 -> 594 ;
595 [label="mse = 0.0\nsamples = 1\nvalue = 1.5"] ;
594 -> 595 ;
596 [label="b16_LC8_07 <= 17247.5\nmse = 0.0\nsamples = 2\nvalue = 1.9"] ;
594 -> 596 ;
597 [label="mse = 0.0\nsamples = 1\nvalue = 2.0"] ;
596 -> 597 ;
598 [label="mse = 0.0\nsamples = 1\nvalue = 1.9"] ;
596 -> 598 ;
599 [label="b33_LC8_07 <= 107.0\nmse = 0.0\nsamples = 10\nvalue = 1.4"] ;
593 -> 599 ;
600 [label="mse = 0.0\nsamples = 1\nvalue = 1.8"] ;
599 -> 600 ;
601 [label="b21_LC8_07 <= 7741.5\nmse = 0.0\nsamples = 9\nvalue = 1.4"] ;
599 -> 601 ;
602 [label="b4_LC8_075 <= 20.5\nmse = 0.0\nsamples = 4\nvalue = 1.5"] ;
601 -> 602 ;
603 [label="b15_LC8_07 <= 18033.0\nmse = 0.0\nsamples = 2\nvalue = 1.5"] ;
602 -> 603 ;
604 [label="mse = 0.0\nsamples = 1\nvalue = 1.5"] ;
603 -> 604 ;
605 [label="mse = 0.0\nsamples = 1\nvalue = 1.5"] ;
603 -> 605 ;
606 [label="b9_LC8_075 <= 4738.0\nmse = 0.0\nsamples = 2\nvalue = 1.6"] ;
602 -> 606 ;
607 [label="mse = 0.0\nsamples = 1\nvalue = 1.6"] ;
606 -> 607 ;
608 [label="mse = 0.0\nsamples = 1\nvalue = 1.6"] ;
606 -> 608 ;
609 [label="b20_LC8_07 <= 7907.5\nmse = 0.0\nsamples = 5\nvalue = 1.3"] ;
601 -> 609 ;
610 [label="b5_LC8_075 <= 15.5\nmse = 0.0\nsamples = 3\nvalue = 1.2"] ;
609 -> 610 ;
611 [label="b33_LC8_07 <= 123.0\nmse = 0.0\nsamples = 2\nvalue = 1.3"] ;
610 -> 611 ;
612 [label="mse = 0.0\nsamples = 1\nvalue = 1.3"] ;
611 -> 612 ;
613 [label="mse = 0.0\nsamples = 1\nvalue = 1.3"] ;
611 -> 613 ;
614 [label="mse = 0.0\nsamples = 1\nvalue = 1.2"] ;
610 -> 614 ;
615 [label="b16_LC8_07 <= 23167.5\nmse = 0.0\nsamples = 2\nvalue = 1.5"] ;
609 -> 615 ;
616 [label="mse = 0.0\nsamples = 1\nvalue = 1.5"] ;
615 -> 616 ;
617 [label="mse = -0.0\nsamples = 1\nvalue = 1.5"] ;
615 -> 617 ;
618 [label="b12_LC8_07 <= 2895.5\nmse = 0.1\nsamples = 144\nvalue = 1.6"] ;
236 -> 618 ;
619 [label="b2_LC8_075 <= 211.5\nmse = 0.0\nsamples = 143\nvalue = 1.7"] ;
618 -> 619 ;
620 [label="b29_LC8_07 <= 337.0\nmse = 0.1\nsamples = 21\nvalue = 1.9"] ;
619 -> 620 ;
621 [label="b29_LC8_07 <= 289.0\nmse = 0.1\nsamples = 20\nvalue = 1.9"] ;
620 -> 621 ;
622 [label="b35_LC8_07 <= 715.5\nmse = 0.0\nsamples = 16\nvalue = 1.9"] ;
621 -> 622 ;
623 [label="b1_LC8_075 <= 55.5\nmse = 0.0\nsamples = 12\nvalue = 1.9"] ;
622 -> 623 ;
624 [label="b18_LC8_07 <= 426.0\nmse = 0.0\nsamples = 7\nvalue = 1.9"] ;
623 -> 624 ;
625 [label="b3_LC8_075 <= 61.0\nmse = 0.0\nsamples = 3\nvalue = 2.0"] ;
624 -> 625 ;
626 [label="b1_LC8_075 <= 52.5\nmse = 0.0\nsamples = 2\nvalue = 2.0"] ;
625 -> 626 ;
627 [label="mse = -0.0\nsamples = 1\nvalue = 2.0"] ;
626 -> 627 ;
628 [label="mse = -0.0\nsamples = 1\nvalue = 2.0"] ;
626 -> 628 ;
629 [label="mse = -0.0\nsamples = 1\nvalue = 2.0"] ;
625 -> 629 ;
630 [label="b8_LC8_075 <= 871.5\nmse = 0.0\nsamples = 4\nvalue = 1.9"] ;
624 -> 630 ;
631 [label="b3_LC8_075 <= 64.5\nmse = 0.0\nsamples = 3\nvalue = 1.9"] ;
630 -> 631 ;
632 [label="b19_LC8_07 <= 4160.5\nmse = 0.0\nsamples = 2\nvalue = 1.9"] ;
631 -> 632 ;
633 [label="mse = 0.0\nsamples = 1\nvalue = 1.9"] ;
632 -> 633 ;
634 [label="mse = 0.0\nsamples = 1\nvalue = 1.9"] ;
632 -> 634 ;
635 [label="mse = -0.0\nsamples = 1\nvalue = 1.9"] ;
631 -> 635 ;
636 [label="mse = -0.0\nsamples = 1\nvalue = 1.7"] ;
630 -> 636 ;
637 [label="b11_LC8_07 <= 4666.5\nmse = 0.0\nsamples = 5\nvalue = 1.8"] ;
623 -> 637 ;
638 [label="mse = 0.0\nsamples = 1\nvalue = 2.0"] ;
637 -> 638 ;
639 [label="b2_LC8_075 <= 209.0\nmse = 0.0\nsamples = 4\nvalue = 1.7"] ;
637 -> 639 ;
640 [label="b34_LC8_07 <= 935.5\nmse = 0.0\nsamples = 3\nvalue = 1.7"] ;
639 -> 640 ;
641 [label="b25_LC8_07 <= 996.0\nmse = 0.0\nsamples = 2\nvalue = 1.7"] ;
640 -> 641 ;
642 [label="mse = 0.0\nsamples = 1\nvalue = 1.7"] ;
641 -> 642 ;
643 [label="mse = 0.0\nsamples = 1\nvalue = 1.7"] ;
641 -> 643 ;
644 [label="mse = -0.0\nsamples = 1\nvalue = 1.7"] ;
640 -> 644 ;
645 [label="mse = 0.0\nsamples = 1\nvalue = 1.8"] ;
639 -> 645 ;
646 [label="b35_LC8_07 <= 738.5\nmse = 0.0\nsamples = 4\nvalue = 2.1"] ;
622 -> 646 ;
647 [label="mse = 0.0\nsamples = 1\nvalue = 2.4"] ;
646 -> 647 ;
648 [label="b17_LC8_07 <= 1144.0\nmse = 0.0\nsamples = 3\nvalue = 2.0"] ;
646 -> 648 ;
649 [label="b32_LC8_07 <= 72.0\nmse = 0.0\nsamples = 2\nvalue = 2.1"] ;
648 -> 649 ;
650 [label="mse = 0.0\nsamples = 1\nvalue = 2.1"] ;
649 -> 650 ;
651 [label="mse = 0.0\nsamples = 1\nvalue = 2.1"] ;
649 -> 651 ;
652 [label="mse = -0.0\nsamples = 1\nvalue = 1.8"] ;
648 -> 652 ;
653 [label="b4_LC8_075 <= 27.0\nmse = 0.1\nsamples = 4\nvalue = 1.6"] ;
621 -> 653 ;
654 [label="mse = 0.0\nsamples = 1\nvalue = 1.1"] ;
653 -> 654 ;
655 [label="b12_LC8_07 <= 2445.0\nmse = 0.0\nsamples = 3\nvalue = 1.8"] ;
653 -> 655 ;
656 [label="b4_LC8_075 <= 30.0\nmse = 0.0\nsamples = 2\nvalue = 1.8"] ;
655 -> 656 ;
657 [label="mse = 0.0\nsamples = 1\nvalue = 1.7"] ;
656 -> 657 ;
658 [label="mse = -0.0\nsamples = 1\nvalue = 1.8"] ;
656 -> 658 ;
659 [label="mse = 0.0\nsamples = 1\nvalue = 1.8"] ;
655 -> 659 ;
660 [label="mse = -0.0\nsamples = 1\nvalue = 2.2"] ;
620 -> 660 ;
661 [label="b10_LC8_07 <= 7547.0\nmse = 0.0\nsamples = 122\nvalue = 1.6"] ;
619 -> 661 ;
662 [label="b30_LC8_07 <= 887.0\nmse = 0.0\nsamples = 101\nvalue = 1.6"] ;
661 -> 662 ;
663 [label="b7_LC8_075 <= 413.5\nmse = 0.0\nsamples = 47\nvalue = 1.7"] ;
662 -> 663 ;
664 [label="b14_LC8_07 <= 13884.0\nmse = 0.0\nsamples = 13\nvalue = 1.8"] ;
663 -> 664 ;
665 [label="b34_LC8_07 <= 669.0\nmse = 0.0\nsamples = 9\nvalue = 1.9"] ;
664 -> 665 ;
666 [label="b1_LC8_075 <= 99.0\nmse = 0.0\nsamples = 7\nvalue = 1.9"] ;
665 -> 666 ;
667 [label="b12_LC8_07 <= 2474.5\nmse = 0.0\nsamples = 4\nvalue = 2.0"] ;
666 -> 667 ;
668 [label="b22_LC8_07 <= 209.0\nmse = 0.0\nsamples = 2\nvalue = 2.1"] ;
667 -> 668 ;
669 [label="mse = 0.0\nsamples = 1\nvalue = 2.0"] ;
668 -> 669 ;
670 [label="mse = 0.0\nsamples = 1\nvalue = 2.1"] ;
668 -> 670 ;
671 [label="b9_LC8_075 <= 4747.5\nmse = 0.0\nsamples = 2\nvalue = 1.9"] ;
667 -> 671 ;
672 [label="mse = 0.0\nsamples = 1\nvalue = 1.9"] ;
671 -> 672 ;
673 [label="mse = 0.0\nsamples = 1\nvalue = 1.9"] ;
671 -> 673 ;
674 [label="b15_LC8_07 <= 15816.0\nmse = 0.0\nsamples = 3\nvalue = 1.8"] ;
666 -> 674 ;
675 [label="mse = 0.0\nsamples = 1\nvalue = 1.8"] ;
674 -> 675 ;
676 [label="b21_LC8_07 <= 9000.0\nmse = 0.0\nsamples = 2\nvalue = 1.9"] ;
674 -> 676 ;
677 [label="mse = 0.0\nsamples = 1\nvalue = 1.8"] ;
676 -> 677 ;
678 [label="mse = -0.0\nsamples = 1\nvalue = 1.9"] ;
676 -> 678 ;
679 [label="b21_LC8_07 <= 8346.5\nmse = 0.0\nsamples = 2\nvalue = 1.7"] ;
665 -> 679 ;
680 [label="mse = 0.0\nsamples = 1\nvalue = 1.5"] ;
679 -> 680 ;
681 [label="mse = -0.0\nsamples = 1\nvalue = 1.8"] ;
679 -> 681 ;
682 [label="b27_LC8_07 <= 134.5\nmse = 0.0\nsamples = 4\nvalue = 1.6"] ;
664 -> 682 ;
683 [label="mse = 0.0\nsamples = 1\nvalue = 1.8"] ;
682 -> 683 ;
684 [label="b12_LC8_07 <= 2554.5\nmse = 0.0\nsamples = 3\nvalue = 1.5"] ;
682 -> 684 ;
685 [label="b6_LC8_075 <= 11.0\nmse = 0.0\nsamples = 2\nvalue = 1.5"] ;
684 -> 685 ;
686 [label="mse = 0.0\nsamples = 1\nvalue = 1.5"] ;
685 -> 686 ;
687 [label="mse = 0.0\nsamples = 1\nvalue = 1.5"] ;
685 -> 687 ;
688 [label="mse = -0.0\nsamples = 1\nvalue = 1.5"] ;
684 -> 688 ;
689 [label="b9_LC8_075 <= 5210.5\nmse = 0.0\nsamples = 34\nvalue = 1.7"] ;
663 -> 689 ;
690 [label="b2_LC8_075 <= 303.5\nmse = 0.0\nsamples = 32\nvalue = 1.7"] ;
689 -> 690 ;
691 [label="b2_LC8_075 <= 237.5\nmse = 0.0\nsamples = 24\nvalue = 1.6"] ;
690 -> 691 ;
692 [label="b25_LC8_07 <= 1273.5\nmse = 0.0\nsamples = 12\nvalue = 1.7"] ;
691 -> 692 ;
693 [label="b13_LC8_07 <= 2145.5\nmse = 0.0\nsamples = 8\nvalue = 1.6"] ;
692 -> 693 ;
694 [label="b20_LC8_07 <= 5072.5\nmse = 0.0\nsamples = 5\nvalue = 1.6"] ;
693 -> 694 ;
695 [label="b7_LC8_075 <= 426.0\nmse = 0.0\nsamples = 3\nvalue = 1.6"] ;
694 -> 695 ;
696 [label="mse = 0.0\nsamples = 1\nvalue = 1.6"] ;
695 -> 696 ;
697 [label="b1_LC8_075 <= 96.0\nmse = 0.0\nsamples = 2\nvalue = 1.6"] ;
695 -> 697 ;
698 [label="mse = 0.0\nsamples = 1\nvalue = 1.6"] ;
697 -> 698 ;
699 [label="mse = 0.0\nsamples = 1\nvalue = 1.6"] ;
697 -> 699 ;
700 [label="b29_LC8_07 <= 195.0\nmse = 0.0\nsamples = 2\nvalue = 1.5"] ;
694 -> 700 ;
701 [label="mse = 0.0\nsamples = 1\nvalue = 1.5"] ;
700 -> 701 ;
702 [label="mse = 0.0\nsamples = 1\nvalue = 1.5"] ;
700 -> 702 ;
703 [label="b24_LC8_07 <= 235.0\nmse = 0.0\nsamples = 3\nvalue = 1.7"] ;
693 -> 703 ;
704 [label="mse = 0.0\nsamples = 1\nvalue = 1.7"] ;
703 -> 704 ;
705 [label="b24_LC8_07 <= 288.5\nmse = 0.0\nsamples = 2\nvalue = 1.6"] ;
703 -> 705 ;
706 [label="mse = 0.0\nsamples = 1\nvalue = 1.7"] ;
705 -> 706 ;
707 [label="mse = 0.0\nsamples = 1\nvalue = 1.6"] ;
705 -> 707 ;
708 [label="b14_LC8_07 <= 10857.0\nmse = 0.0\nsamples = 4\nvalue = 1.9"] ;
692 -> 708 ;
709 [label="b25_LC8_07 <= 1296.5\nmse = 0.0\nsamples = 2\nvalue = 2.0"] ;
708 -> 709 ;
710 [label="mse = 0.0\nsamples = 1\nvalue = 2.0"] ;
709 -> 710 ;
711 [label="mse = -0.0\nsamples = 1\nvalue = 2.0"] ;
709 -> 711 ;
712 [label="b35_LC8_07 <= 1044.5\nmse = 0.0\nsamples = 2\nvalue = 1.7"] ;
708 -> 712 ;
713 [label="mse = 0.0\nsamples = 1\nvalue = 1.7"] ;
712 -> 713 ;
714 [label="mse = -0.0\nsamples = 1\nvalue = 1.8"] ;
712 -> 714 ;
715 [label="b9_LC8_075 <= 4952.5\nmse = 0.0\nsamples = 12\nvalue = 1.6"] ;
691 -> 715 ;
716 [label="b35_LC8_07 <= 876.5\nmse = 0.0\nsamples = 9\nvalue = 1.6"] ;
715 -> 716 ;
717 [label="b14_LC8_07 <= 6616.0\nmse = 0.0\nsamples = 8\nvalue = 1.6"] ;
716 -> 717 ;
718 [label="mse = 0.0\nsamples = 1\nvalue = 1.6"] ;
717 -> 718 ;
719 [label="b3_LC8_075 <= 114.5\nmse = 0.0\nsamples = 7\nvalue = 1.6"] ;
717 -> 719 ;
720 [label="b31_LC8_07 <= 83.0\nmse = 0.0\nsamples = 4\nvalue = 1.6"] ;
719 -> 720 ;
721 [label="mse = 0.0\nsamples = 1\nvalue = 1.6"] ;
720 -> 721 ;
722 [label="b12_LC8_07 <= 2354.5\nmse = 0.0\nsamples = 3\nvalue = 1.6"] ;
720 -> 722 ;
723 [label="mse = 0.0\nsamples = 2\nvalue = 1.6"] ;
722 -> 723 ;
724 [label="mse = -0.0\nsamples = 1\nvalue = 1.6"] ;
722 -> 724 ;
725 [label="b31_LC8_07 <= 117.0\nmse = 0.0\nsamples = 3\nvalue = 1.5"] ;
719 -> 725 ;
726 [label="mse = 0.0\nsamples = 1\nvalue = 1.5"] ;
725 -> 726 ;
727 [label="b3_LC8_075 <= 137.5\nmse = 0.0\nsamples = 2\nvalue = 1.6"] ;
725 -> 727 ;
728 [label="mse = 0.0\nsamples = 1\nvalue = 1.6"] ;
727 -> 728 ;
729 [label="mse = 0.0\nsamples = 1\nvalue = 1.6"] ;
727 -> 729 ;
730 [label="mse = -0.0\nsamples = 1\nvalue = 1.7"] ;
716 -> 730 ;
731 [label="b16_LC8_07 <= 18183.5\nmse = 0.0\nsamples = 3\nvalue = 1.5"] ;
715 -> 731 ;
732 [label="mse = 0.0\nsamples = 1\nvalue = 1.5"] ;
731 -> 732 ;
733 [label="b7_LC8_075 <= 436.0\nmse = 0.0\nsamples = 2\nvalue = 1.5"] ;
731 -> 733 ;
734 [label="mse = 0.0\nsamples = 1\nvalue = 1.5"] ;
733 -> 734 ;
735 [label="mse = -0.0\nsamples = 1\nvalue = 1.5"] ;
733 -> 735 ;
736 [label="b13_LC8_07 <= 1940.5\nmse = 0.0\nsamples = 8\nvalue = 1.7"] ;
690 -> 736 ;
737 [label="b17_LC8_07 <= 1104.5\nmse = 0.0\nsamples = 4\nvalue = 1.7"] ;
736 -> 737 ;
738 [label="b30_LC8_07 <= 734.5\nmse = 0.0\nsamples = 3\nvalue = 1.7"] ;
737 -> 738 ;
739 [label="b5_LC8_075 <= 31.5\nmse = 0.0\nsamples = 2\nvalue = 1.7"] ;
738 -> 739 ;
740 [label="mse = 0.0\nsamples = 1\nvalue = 1.7"] ;
739 -> 740 ;
741 [label="mse = -0.0\nsamples = 1\nvalue = 1.7"] ;
739 -> 741 ;
742 [label="mse = 0.0\nsamples = 1\nvalue = 1.7"] ;
738 -> 742 ;
743 [label="mse = 0.0\nsamples = 1\nvalue = 1.7"] ;
737 -> 743 ;
744 [label="b34_LC8_07 <= 434.0\nmse = 0.0\nsamples = 4\nvalue = 1.8"] ;
736 -> 744 ;
745 [label="b34_LC8_07 <= 412.5\nmse = 0.0\nsamples = 2\nvalue = 1.8"] ;
744 -> 745 ;
746 [label="mse = 0.0\nsamples = 1\nvalue = 1.8"] ;
745 -> 746 ;
747 [label="mse = 0.0\nsamples = 1\nvalue = 1.8"] ;
745 -> 747 ;
748 [label="b30_LC8_07 <= 709.0\nmse = 0.0\nsamples = 2\nvalue = 1.8"] ;
744 -> 748 ;
749 [label="mse = 0.0\nsamples = 1\nvalue = 1.8"] ;
748 -> 749 ;
750 [label="mse = -0.0\nsamples = 1\nvalue = 1.8"] ;
748 -> 750 ;
751 [label="b2_LC8_075 <= 225.0\nmse = 0.0\nsamples = 2\nvalue = 1.9"] ;
689 -> 751 ;
752 [label="mse = -0.0\nsamples = 1\nvalue = 1.8"] ;
751 -> 752 ;
753 [label="mse = -0.0\nsamples = 1\nvalue = 2.0"] ;
751 -> 753 ;
754 [label="b25_LC8_07 <= 804.5\nmse = 0.0\nsamples = 54\nvalue = 1.6"] ;
662 -> 754 ;
755 [label="b8_LC8_075 <= 895.5\nmse = 0.0\nsamples = 3\nvalue = 1.8"] ;
754 -> 755 ;
756 [label="mse = 0.0\nsamples = 1\nvalue = 1.7"] ;
755 -> 756 ;
757 [label="b28_LC8_07 <= 122.5\nmse = 0.0\nsamples = 2\nvalue = 1.9"] ;
755 -> 757 ;
758 [label="mse = 0.0\nsamples = 1\nvalue = 1.9"] ;
757 -> 758 ;
759 [label="mse = -0.0\nsamples = 1\nvalue = 1.9"] ;
757 -> 759 ;
760 [label="b8_LC8_075 <= 895.5\nmse = 0.0\nsamples = 51\nvalue = 1.6"] ;
754 -> 760 ;
761 [label="b18_LC8_07 <= 471.5\nmse = 0.0\nsamples = 27\nvalue = 1.6"] ;
760 -> 761 ;
762 [label="b19_LC8_07 <= 7531.5\nmse = 0.0\nsamples = 15\nvalue = 1.7"] ;
761 -> 762 ;
763 [label="b17_LC8_07 <= 1195.5\nmse = 0.0\nsamples = 13\nvalue = 1.7"] ;
762 -> 763 ;
764 [label="b17_LC8_07 <= 1119.5\nmse = 0.0\nsamples = 11\nvalue = 1.8"] ;
763 -> 764 ;
765 [label="mse = 0.0\nsamples = 1\nvalue = 2.0"] ;
764 -> 765 ;
766 [label="b30_LC8_07 <= 1101.0\nmse = 0.0\nsamples = 10\nvalue = 1.7"] ;
764 -> 766 ;
767 [label="b10_LC8_07 <= 6054.5\nmse = 0.0\nsamples = 8\nvalue = 1.7"] ;
766 -> 767 ;
768 [label="b22_LC8_07 <= 173.5\nmse = 0.0\nsamples = 6\nvalue = 1.7"] ;
767 -> 768 ;
769 [label="mse = 0.0\nsamples = 1\nvalue = 1.7"] ;
768 -> 769 ;
770 [label="b17_LC8_07 <= 1129.5\nmse = 0.0\nsamples = 5\nvalue = 1.7"] ;
768 -> 770 ;
771 [label="b15_LC8_07 <= 12186.0\nmse = 0.0\nsamples = 2\nvalue = 1.7"] ;
770 -> 771 ;
772 [label="mse = 0.0\nsamples = 1\nvalue = 1.7"] ;
771 -> 772 ;
773 [label="mse = 0.0\nsamples = 1\nvalue = 1.7"] ;
771 -> 773 ;
774 [label="b2_LC8_075 <= 233.5\nmse = 0.0\nsamples = 3\nvalue = 1.7"] ;
770 -> 774 ;
775 [label="mse = 0.0\nsamples = 1\nvalue = 1.7"] ;
774 -> 775 ;
776 [label="b27_LC8_07 <= 202.0\nmse = 0.0\nsamples = 2\nvalue = 1.7"] ;
774 -> 776 ;
777 [label="mse = 0.0\nsamples = 1\nvalue = 1.7"] ;
776 -> 777 ;
778 [label="mse = -0.0\nsamples = 1\nvalue = 1.7"] ;
776 -> 778 ;
779 [label="b18_LC8_07 <= 447.0\nmse = 0.0\nsamples = 2\nvalue = 1.8"] ;
767 -> 779 ;
780 [label="mse = 0.0\nsamples = 1\nvalue = 1.8"] ;
779 -> 780 ;
781 [label="mse = -0.0\nsamples = 1\nvalue = 1.8"] ;
779 -> 781 ;
782 [label="b21_LC8_07 <= 5780.5\nmse = 0.0\nsamples = 2\nvalue = 1.8"] ;
766 -> 782 ;
783 [label="mse = 0.0\nsamples = 1\nvalue = 1.8"] ;
782 -> 783 ;
784 [label="mse = 0.0\nsamples = 1\nvalue = 1.8"] ;
782 -> 784 ;
785 [label="b29_LC8_07 <= 147.5\nmse = 0.0\nsamples = 2\nvalue = 1.5"] ;
763 -> 785 ;
786 [label="mse = 0.0\nsamples = 1\nvalue = 1.5"] ;
785 -> 786 ;
787 [label="mse = 0.0\nsamples = 1\nvalue = 1.5"] ;
785 -> 787 ;
788 [label="b17_LC8_07 <= 1154.5\nmse = 0.0\nsamples = 2\nvalue = 1.5"] ;
762 -> 788 ;
789 [label="mse = 0.0\nsamples = 1\nvalue = 1.5"] ;
788 -> 789 ;
790 [label="mse = 0.0\nsamples = 1\nvalue = 1.4"] ;
788 -> 790 ;
791 [label="b3_LC8_075 <= 114.5\nmse = 0.0\nsamples = 12\nvalue = 1.5"] ;
761 -> 791 ;
792 [label="b2_LC8_075 <= 216.5\nmse = 0.0\nsamples = 6\nvalue = 1.6"] ;
791 -> 792 ;
793 [label="b16_LC8_07 <= 12541.5\nmse = 0.0\nsamples = 2\nvalue = 1.5"] ;
792 -> 793 ;
794 [label="mse = 0.0\nsamples = 1\nvalue = 1.5"] ;
793 -> 794 ;
795 [label="mse = 0.0\nsamples = 1\nvalue = 1.6"] ;
793 -> 795 ;
796 [label="b8_LC8_075 <= 841.5\nmse = 0.0\nsamples = 4\nvalue = 1.6"] ;
792 -> 796 ;
797 [label="b13_LC8_07 <= 2037.0\nmse = 0.0\nsamples = 2\nvalue = 1.7"] ;
796 -> 797 ;
798 [label="mse = 0.0\nsamples = 1\nvalue = 1.7"] ;
797 -> 798 ;
799 [label="mse = 0.0\nsamples = 1\nvalue = 1.7"] ;
797 -> 799 ;
800 [label="b8_LC8_075 <= 861.5\nmse = 0.0\nsamples = 2\nvalue = 1.6"] ;
796 -> 800 ;
801 [label="mse = 0.0\nsamples = 1\nvalue = 1.6"] ;
800 -> 801 ;
802 [label="mse = -0.0\nsamples = 1\nvalue = 1.6"] ;
800 -> 802 ;
803 [label="b17_LC8_07 <= 1183.0\nmse = 0.0\nsamples = 6\nvalue = 1.4"] ;
791 -> 803 ;
804 [label="mse = 0.0\nsamples = 1\nvalue = 1.1"] ;
803 -> 804 ;
805 [label="b35_LC8_07 <= 874.5\nmse = 0.0\nsamples = 5\nvalue = 1.5"] ;
803 -> 805 ;
806 [label="b34_LC8_07 <= 732.0\nmse = 0.0\nsamples = 4\nvalue = 1.5"] ;
805 -> 806 ;
807 [label="b3_LC8_075 <= 119.0\nmse = 0.0\nsamples = 2\nvalue = 1.5"] ;
806 -> 807 ;
808 [label="mse = 0.0\nsamples = 1\nvalue = 1.5"] ;
807 -> 808 ;
809 [label="mse = 0.0\nsamples = 1\nvalue = 1.5"] ;
807 -> 809 ;
810 [label="b18_LC8_07 <= 485.0\nmse = 0.0\nsamples = 2\nvalue = 1.4"] ;
806 -> 810 ;
811 [label="mse = 0.0\nsamples = 1\nvalue = 1.4"] ;
810 -> 811 ;
812 [label="mse = 0.0\nsamples = 1\nvalue = 1.5"] ;
810 -> 812 ;
813 [label="mse = -0.0\nsamples = 1\nvalue = 1.7"] ;
805 -> 813 ;
814 [label="b6_LC8_075 <= 14.5\nmse = 0.0\nsamples = 24\nvalue = 1.5"] ;
760 -> 814 ;
815 [label="b2_LC8_075 <= 236.5\nmse = 0.0\nsamples = 12\nvalue = 1.6"] ;
814 -> 815 ;
816 [label="b12_LC8_07 <= 2424.0\nmse = 0.0\nsamples = 6\nvalue = 1.7"] ;
815 -> 816 ;
817 [label="b15_LC8_07 <= 15086.0\nmse = 0.0\nsamples = 5\nvalue = 1.7"] ;
816 -> 817 ;
818 [label="b15_LC8_07 <= 13232.0\nmse = 0.0\nsamples = 3\nvalue = 1.8"] ;
817 -> 818 ;
819 [label="mse = 0.0\nsamples = 1\nvalue = 1.8"] ;
818 -> 819 ;
820 [label="b12_LC8_07 <= 2334.5\nmse = 0.0\nsamples = 2\nvalue = 1.7"] ;
818 -> 820 ;
821 [label="mse = 0.0\nsamples = 1\nvalue = 1.8"] ;
820 -> 821 ;
822 [label="mse = 0.0\nsamples = 1\nvalue = 1.7"] ;
820 -> 822 ;
823 [label="b28_LC8_07 <= 59.0\nmse = 0.0\nsamples = 2\nvalue = 1.7"] ;
817 -> 823 ;
824 [label="mse = 0.0\nsamples = 1\nvalue = 1.7"] ;
823 -> 824 ;
825 [label="mse = 0.0\nsamples = 1\nvalue = 1.6"] ;
823 -> 825 ;
826 [label="mse = -0.0\nsamples = 1\nvalue = 1.5"] ;
816 -> 826 ;
827 [label="b7_LC8_075 <= 446.5\nmse = 0.0\nsamples = 6\nvalue = 1.5"] ;
815 -> 827 ;
828 [label="b25_LC8_07 <= 1084.0\nmse = 0.0\nsamples = 5\nvalue = 1.5"] ;
827 -> 828 ;
829 [label="b23_LC8_07 <= 79.5\nmse = 0.0\nsamples = 3\nvalue = 1.5"] ;
828 -> 829 ;
830 [label="b17_LC8_07 <= 1077.0\nmse = 0.0\nsamples = 2\nvalue = 1.5"] ;
829 -> 830 ;
831 [label="mse = 0.0\nsamples = 1\nvalue = 1.5"] ;
830 -> 831 ;
832 [label="mse = 0.0\nsamples = 1\nvalue = 1.5"] ;
830 -> 832 ;
833 [label="mse = 0.0\nsamples = 1\nvalue = 1.5"] ;
829 -> 833 ;
834 [label="b7_LC8_075 <= 409.5\nmse = 0.0\nsamples = 2\nvalue = 1.5"] ;
828 -> 834 ;
835 [label="mse = 0.0\nsamples = 1\nvalue = 1.5"] ;
834 -> 835 ;
836 [label="mse = -0.0\nsamples = 1\nvalue = 1.5"] ;
834 -> 836 ;
837 [label="mse = -0.0\nsamples = 1\nvalue = 1.6"] ;
827 -> 837 ;
838 [label="b35_LC8_07 <= 597.0\nmse = 0.0\nsamples = 12\nvalue = 1.4"] ;
814 -> 838 ;
839 [label="mse = 0.0\nsamples = 1\nvalue = 0.7"] ;
838 -> 839 ;
840 [label="b21_LC8_07 <= 6706.5\nmse = 0.0\nsamples = 11\nvalue = 1.4"] ;
838 -> 840 ;
841 [label="b26_LC8_07 <= 1341.5\nmse = 0.0\nsamples = 5\nvalue = 1.5"] ;
840 -> 841 ;
842 [label="b29_LC8_07 <= 267.0\nmse = 0.0\nsamples = 3\nvalue = 1.5"] ;
841 -> 842 ;
843 [label="b27_LC8_07 <= 219.0\nmse = 0.0\nsamples = 2\nvalue = 1.5"] ;
842 -> 843 ;
844 [label="mse = 0.0\nsamples = 1\nvalue = 1.5"] ;
843 -> 844 ;
845 [label="mse = 0.0\nsamples = 1\nvalue = 1.5"] ;
843 -> 845 ;
846 [label="mse = -0.0\nsamples = 1\nvalue = 1.5"] ;
842 -> 846 ;
847 [label="b23_LC8_07 <= 125.0\nmse = 0.0\nsamples = 2\nvalue = 1.6"] ;
841 -> 847 ;
848 [label="mse = 0.0\nsamples = 1\nvalue = 1.6"] ;
847 -> 848 ;
849 [label="mse = -0.0\nsamples = 1\nvalue = 1.6"] ;
847 -> 849 ;
850 [label="b19_LC8_07 <= 6059.0\nmse = 0.0\nsamples = 6\nvalue = 1.4"] ;
840 -> 850 ;
851 [label="b9_LC8_075 <= 5084.0\nmse = 0.0\nsamples = 3\nvalue = 1.3"] ;
850 -> 851 ;
852 [label="mse = 0.0\nsamples = 1\nvalue = 1.2"] ;
851 -> 852 ;
853 [label="b14_LC8_07 <= 12015.0\nmse = 0.0\nsamples = 2\nvalue = 1.3"] ;
851 -> 853 ;
854 [label="mse = 0.0\nsamples = 1\nvalue = 1.3"] ;
853 -> 854 ;
855 [label="mse = 0.0\nsamples = 1\nvalue = 1.3"] ;
853 -> 855 ;
856 [label="b10_LC8_07 <= 5976.0\nmse = 0.0\nsamples = 3\nvalue = 1.4"] ;
850 -> 856 ;
857 [label="mse = 0.0\nsamples = 1\nvalue = 1.6"] ;
856 -> 857 ;
858 [label="b21_LC8_07 <= 9216.5\nmse = 0.0\nsamples = 2\nvalue = 1.4"] ;
856 -> 858 ;
859 [label="mse = 0.0\nsamples = 1\nvalue = 1.4"] ;
858 -> 859 ;
860 [label="mse = 0.0\nsamples = 1\nvalue = 1.4"] ;
858 -> 860 ;
861 [label="b3_LC8_075 <= 106.5\nmse = 0.0\nsamples = 21\nvalue = 1.5"] ;
661 -> 861 ;
862 [label="b11_LC8_07 <= 9430.5\nmse = 0.0\nsamples = 3\nvalue = 1.7"] ;
861 -> 862 ;
863 [label="b28_LC8_07 <= 53.5\nmse = 0.0\nsamples = 2\nvalue = 1.5"] ;
862 -> 863 ;
864 [label="mse = 0.0\nsamples = 1\nvalue = 1.5"] ;
863 -> 864 ;
865 [label="mse = 0.0\nsamples = 1\nvalue = 1.6"] ;
863 -> 865 ;
866 [label="mse = 0.0\nsamples = 1\nvalue = 1.8"] ;
862 -> 866 ;
867 [label="b12_LC8_07 <= 2271.0\nmse = 0.0\nsamples = 18\nvalue = 1.5"] ;
861 -> 867 ;
868 [label="mse = 0.0\nsamples = 1\nvalue = 1.2"] ;
867 -> 868 ;
869 [label="b7_LC8_075 <= 410.5\nmse = 0.0\nsamples = 17\nvalue = 1.5"] ;
867 -> 869 ;
870 [label="b21_LC8_07 <= 10515.5\nmse = 0.0\nsamples = 11\nvalue = 1.5"] ;
869 -> 870 ;
871 [label="b1_LC8_075 <= 121.0\nmse = 0.0\nsamples = 4\nvalue = 1.5"] ;
870 -> 871 ;
872 [label="b27_LC8_07 <= 117.5\nmse = 0.0\nsamples = 2\nvalue = 1.5"] ;
871 -> 872 ;
873 [label="mse = 0.0\nsamples = 1\nvalue = 1.5"] ;
872 -> 873 ;
874 [label="mse = 0.0\nsamples = 1\nvalue = 1.5"] ;
872 -> 874 ;
875 [label="b11_LC8_07 <= 9821.5\nmse = 0.0\nsamples = 2\nvalue = 1.5"] ;
871 -> 875 ;
876 [label="mse = 0.0\nsamples = 1\nvalue = 1.5"] ;
875 -> 876 ;
877 [label="mse = -0.0\nsamples = 1\nvalue = 1.5"] ;
875 -> 877 ;
878 [label="b3_LC8_075 <= 111.5\nmse = 0.0\nsamples = 7\nvalue = 1.4"] ;
870 -> 878 ;
879 [label="mse = 0.0\nsamples = 1\nvalue = 1.5"] ;
878 -> 879 ;
880 [label="b4_LC8_075 <= 21.5\nmse = 0.0\nsamples = 6\nvalue = 1.4"] ;
878 -> 880 ;
881 [label="b13_LC8_07 <= 2120.5\nmse = 0.0\nsamples = 5\nvalue = 1.4"] ;
880 -> 881 ;
882 [label="b18_LC8_07 <= 479.0\nmse = 0.0\nsamples = 2\nvalue = 1.4"] ;
881 -> 882 ;
883 [label="mse = 0.0\nsamples = 1\nvalue = 1.4"] ;
882 -> 883 ;
884 [label="mse = -0.0\nsamples = 1\nvalue = 1.4"] ;
882 -> 884 ;
885 [label="b33_LC8_07 <= 77.5\nmse = 0.0\nsamples = 3\nvalue = 1.4"] ;
881 -> 885 ;
886 [label="mse = 0.0\nsamples = 1\nvalue = 1.4"] ;
885 -> 886 ;
887 [label="b25_LC8_07 <= 1538.0\nmse = 0.0\nsamples = 2\nvalue = 1.4"] ;
885 -> 887 ;
888 [label="mse = 0.0\nsamples = 1\nvalue = 1.4"] ;
887 -> 888 ;
889 [label="mse = -0.0\nsamples = 1\nvalue = 1.4"] ;
887 -> 889 ;
890 [label="mse = -0.0\nsamples = 1\nvalue = 1.4"] ;
880 -> 890 ;
891 [label="b7_LC8_075 <= 420.0\nmse = 0.0\nsamples = 6\nvalue = 1.5"] ;
869 -> 891 ;
892 [label="b20_LC8_07 <= 9291.5\nmse = 0.0\nsamples = 4\nvalue = 1.6"] ;
891 -> 892 ;
893 [label="b7_LC8_075 <= 414.0\nmse = 0.0\nsamples = 2\nvalue = 1.6"] ;
892 -> 893 ;
894 [label="mse = 0.0\nsamples = 1\nvalue = 1.6"] ;
893 -> 894 ;
895 [label="mse = 0.0\nsamples = 1\nvalue = 1.6"] ;
893 -> 895 ;
896 [label="b35_LC8_07 <= 1095.5\nmse = 0.0\nsamples = 2\nvalue = 1.5"] ;
892 -> 896 ;
897 [label="mse = 0.0\nsamples = 1\nvalue = 1.5"] ;
896 -> 897 ;
898 [label="mse = -0.0\nsamples = 1\nvalue = 1.5"] ;
896 -> 898 ;
899 [label="b18_LC8_07 <= 454.5\nmse = 0.0\nsamples = 2\nvalue = 1.5"] ;
891 -> 899 ;
900 [label="mse = 0.0\nsamples = 1\nvalue = 1.5"] ;
899 -> 900 ;
901 [label="mse = 0.0\nsamples = 1\nvalue = 1.5"] ;
899 -> 901 ;
902 [label="mse = -0.0\nsamples = 1\nvalue = 0.9"] ;
618 -> 902 ;
903 [label="b25_LC8_07 <= 1763.5\nmse = 0.2\nsamples = 434\nvalue = 2.1"] ;
235 -> 903 ;
904 [label="b2_LC8_075 <= 251.5\nmse = 0.1\nsamples = 418\nvalue = 2.1"] ;
903 -> 904 ;
905 [label="b3_LC8_075 <= 118.5\nmse = 0.2\nsamples = 312\nvalue = 2.1"] ;
904 -> 905 ;
906 [label="b13_LC8_07 <= 2739.5\nmse = 0.1\nsamples = 310\nvalue = 2.1"] ;
905 -> 906 ;
907 [label="b22_LC8_07 <= 102.5\nmse = 0.1\nsamples = 210\nvalue = 2.0"] ;
906 -> 907 ;
908 [label="b8_LC8_075 <= 1850.0\nmse = 0.1\nsamples = 13\nvalue = 1.5"] ;
907 -> 908 ;
909 [label="b35_LC8_07 <= 881.0\nmse = 0.1\nsamples = 9\nvalue = 1.4"] ;
908 -> 909 ;
910 [label="b24_LC8_07 <= 87.5\nmse = 0.0\nsamples = 5\nvalue = 1.5"] ;
909 -> 910 ;
911 [label="b29_LC8_07 <= 63.0\nmse = 0.0\nsamples = 3\nvalue = 1.6"] ;
910 -> 911 ;
912 [label="mse = 0.0\nsamples = 1\nvalue = 1.7"] ;
911 -> 912 ;
913 [label="b15_LC8_07 <= 17777.5\nmse = 0.0\nsamples = 2\nvalue = 1.6"] ;
911 -> 913 ;
914 [label="mse = 0.0\nsamples = 1\nvalue = 1.6"] ;
913 -> 914 ;
915 [label="mse = -0.0\nsamples = 1\nvalue = 1.6"] ;
913 -> 915 ;
916 [label="b28_LC8_07 <= 42.0\nmse = 0.0\nsamples = 2\nvalue = 1.3"] ;
910 -> 916 ;
917 [label="mse = 0.0\nsamples = 1\nvalue = 1.3"] ;
916 -> 917 ;
918 [label="mse = 0.0\nsamples = 1\nvalue = 1.3"] ;
916 -> 918 ;
919 [label="b6_LC8_075 <= 19.0\nmse = 0.0\nsamples = 4\nvalue = 1.1"] ;
909 -> 919 ;
920 [label="b20_LC8_07 <= 6626.0\nmse = 0.0\nsamples = 3\nvalue = 1.2"] ;
919 -> 920 ;
921 [label="mse = 0.0\nsamples = 1\nvalue = 1.1"] ;
920 -> 921 ;
922 [label="b1_LC8_075 <= 164.5\nmse = 0.0\nsamples = 2\nvalue = 1.3"] ;
920 -> 922 ;
923 [label="mse = 0.0\nsamples = 1\nvalue = 1.2"] ;
922 -> 923 ;
924 [label="mse = 0.0\nsamples = 1\nvalue = 1.3"] ;
922 -> 924 ;
925 [label="mse = -0.0\nsamples = 1\nvalue = 0.8"] ;
919 -> 925 ;
926 [label="b17_LC8_07 <= 506.0\nmse = 0.0\nsamples = 4\nvalue = 1.9"] ;
908 -> 926 ;
927 [label="b19_LC8_07 <= -13484.0\nmse = 0.0\nsamples = 2\nvalue = 1.6"] ;
926 -> 927 ;
928 [label="mse = 0.0\nsamples = 1\nvalue = 1.8"] ;
927 -> 928 ;
929 [label="mse = 0.0\nsamples = 1\nvalue = 1.5"] ;
927 -> 929 ;
930 [label="b24_LC8_07 <= -25.0\nmse = 0.0\nsamples = 2\nvalue = 2.0"] ;
926 -> 930 ;
931 [label="mse = -0.0\nsamples = 1\nvalue = 2.0"] ;
930 -> 931 ;
932 [label="mse = -0.0\nsamples = 1\nvalue = 2.1"] ;
930 -> 932 ;
933 [label="b1_LC8_075 <= 145.0\nmse = 0.1\nsamples = 197\nvalue = 2.1"] ;
907 -> 933 ;
934 [label="b2_LC8_075 <= 154.0\nmse = 0.1\nsamples = 192\nvalue = 2.1"] ;
933 -> 934 ;
935 [label="b13_LC8_07 <= 2465.5\nmse = 0.0\nsamples = 29\nvalue = 1.9"] ;
934 -> 935 ;
936 [label="b24_LC8_07 <= 302.5\nmse = 0.1\nsamples = 3\nvalue = 1.4"] ;
935 -> 936 ;
937 [label="mse = 0.0\nsamples = 1\nvalue = 1.0"] ;
936 -> 937 ;
938 [label="b19_LC8_07 <= 2854.5\nmse = 0.0\nsamples = 2\nvalue = 1.5"] ;
936 -> 938 ;
939 [label="mse = 0.0\nsamples = 1\nvalue = 1.6"] ;
938 -> 939 ;
940 [label="mse = 0.0\nsamples = 1\nvalue = 1.4"] ;
938 -> 940 ;
941 [label="b2_LC8_075 <= 137.0\nmse = 0.0\nsamples = 26\nvalue = 1.9"] ;
935 -> 941 ;
942 [label="b22_LC8_07 <= 256.5\nmse = 0.0\nsamples = 9\nvalue = 1.8"] ;
941 -> 942 ;
943 [label="b12_LC8_07 <= 2137.0\nmse = 0.0\nsamples = 5\nvalue = 1.8"] ;
942 -> 943 ;
944 [label="b14_LC8_07 <= 9321.5\nmse = 0.0\nsamples = 2\nvalue = 1.8"] ;
943 -> 944 ;
945 [label="mse = 0.0\nsamples = 1\nvalue = 1.7"] ;
944 -> 945 ;
946 [label="mse = 0.0\nsamples = 1\nvalue = 1.8"] ;
944 -> 946 ;
947 [label="b17_LC8_07 <= 855.5\nmse = 0.0\nsamples = 3\nvalue = 1.9"] ;
943 -> 947 ;
948 [label="b16_LC8_07 <= 14448.0\nmse = 0.0\nsamples = 2\nvalue = 1.8"] ;
947 -> 948 ;
949 [label="mse = 0.0\nsamples = 1\nvalue = 1.9"] ;
948 -> 949 ;
950 [label="mse = -0.0\nsamples = 1\nvalue = 1.8"] ;
948 -> 950 ;
951 [label="mse = 0.0\nsamples = 1\nvalue = 1.9"] ;
947 -> 951 ;
952 [label="b2_LC8_075 <= 121.5\nmse = 0.0\nsamples = 4\nvalue = 1.7"] ;
942 -> 952 ;
953 [label="mse = 0.0\nsamples = 1\nvalue = 1.7"] ;
952 -> 953 ;
954 [label="b26_LC8_07 <= 2750.0\nmse = 0.0\nsamples = 3\nvalue = 1.7"] ;
952 -> 954 ;
955 [label="b30_LC8_07 <= 830.5\nmse = 0.0\nsamples = 2\nvalue = 1.7"] ;
954 -> 955 ;
956 [label="mse = 0.0\nsamples = 1\nvalue = 1.7"] ;
955 -> 956 ;
957 [label="mse = 0.0\nsamples = 1\nvalue = 1.7"] ;
955 -> 957 ;
958 [label="mse = -0.0\nsamples = 1\nvalue = 1.7"] ;
954 -> 958 ;
959 [label="b33_LC8_07 <= 257.0\nmse = 0.0\nsamples = 17\nvalue = 2.0"] ;
941 -> 959 ;
960 [label="b12_LC8_07 <= 2429.0\nmse = 0.0\nsamples = 14\nvalue = 2.0"] ;
959 -> 960 ;
961 [label="b1_LC8_075 <= 73.0\nmse = 0.0\nsamples = 13\nvalue = 2.0"] ;
960 -> 961 ;
962 [label="b31_LC8_07 <= 182.0\nmse = 0.0\nsamples = 12\nvalue = 2.0"] ;
961 -> 962 ;
963 [label="b13_LC8_07 <= 2549.0\nmse = 0.0\nsamples = 9\nvalue = 2.1"] ;
962 -> 963 ;
964 [label="b19_LC8_07 <= 3689.0\nmse = 0.0\nsamples = 2\nvalue = 2.0"] ;
963 -> 964 ;
965 [label="mse = 0.0\nsamples = 1\nvalue = 2.0"] ;
964 -> 965 ;
966 [label="mse = -0.0\nsamples = 1\nvalue = 2.0"] ;
964 -> 966 ;
967 [label="b27_LC8_07 <= 243.0\nmse = 0.0\nsamples = 7\nvalue = 2.1"] ;
963 -> 967 ;
968 [label="b17_LC8_07 <= 842.0\nmse = 0.0\nsamples = 4\nvalue = 2.1"] ;
967 -> 968 ;
969 [label="b12_LC8_07 <= 2091.5\nmse = 0.0\nsamples = 3\nvalue = 2.1"] ;
968 -> 969 ;
970 [label="b26_LC8_07 <= 1192.5\nmse = 0.0\nsamples = 2\nvalue = 2.1"] ;
969 -> 970 ;
971 [label="mse = 0.0\nsamples = 1\nvalue = 2.1"] ;
970 -> 971 ;
972 [label="mse = -0.0\nsamples = 1\nvalue = 2.1"] ;
970 -> 972 ;
973 [label="mse = -0.0\nsamples = 1\nvalue = 2.1"] ;
969 -> 973 ;
974 [label="mse = -0.0\nsamples = 1\nvalue = 2.1"] ;
968 -> 974 ;
975 [label="b32_LC8_07 <= 72.5\nmse = 0.0\nsamples = 3\nvalue = 2.1"] ;
967 -> 975 ;
976 [label="b21_LC8_07 <= 6650.0\nmse = 0.0\nsamples = 2\nvalue = 2.1"] ;
975 -> 976 ;
977 [label="mse = 0.0\nsamples = 1\nvalue = 2.1"] ;
976 -> 977 ;
978 [label="mse = 0.0\nsamples = 1\nvalue = 2.1"] ;
976 -> 978 ;
979 [label="mse = -0.0\nsamples = 1\nvalue = 2.1"] ;
975 -> 979 ;
980 [label="b24_LC8_07 <= 324.5\nmse = 0.0\nsamples = 3\nvalue = 2.0"] ;
962 -> 980 ;
981 [label="b31_LC8_07 <= 194.5\nmse = 0.0\nsamples = 2\nvalue = 2.0"] ;
980 -> 981 ;
982 [label="mse = 0.0\nsamples = 1\nvalue = 2.0"] ;
981 -> 982 ;
983 [label="mse = 0.0\nsamples = 1\nvalue = 2.0"] ;
981 -> 983 ;
984 [label="mse = -0.0\nsamples = 1\nvalue = 2.0"] ;
980 -> 984 ;
985 [label="mse = -0.0\nsamples = 1\nvalue = 2.0"] ;
961 -> 985 ;
986 [label="mse = 0.0\nsamples = 1\nvalue = 1.9"] ;
960 -> 986 ;
987 [label="b29_LC8_07 <= 405.0\nmse = 0.0\nsamples = 3\nvalue = 1.9"] ;
959 -> 987 ;
988 [label="b5_LC8_075 <= 19.0\nmse = 0.0\nsamples = 2\nvalue = 2.0"] ;
987 -> 988 ;
989 [label="mse = 0.0\nsamples = 1\nvalue = 2.0"] ;
988 -> 989 ;
990 [label="mse = -0.0\nsamples = 1\nvalue = 1.9"] ;
988 -> 990 ;
991 [label="mse = 0.0\nsamples = 1\nvalue = 1.9"] ;
987 -> 991 ;
992 [label="b7_LC8_075 <= 507.5\nmse = 0.1\nsamples = 163\nvalue = 2.1"] ;
934 -> 992 ;
993 [label="b9_LC8_075 <= 3186.5\nmse = 0.0\nsamples = 123\nvalue = 2.0"] ;
992 -> 993 ;
994 [label="b14_LC8_07 <= 6375.0\nmse = 0.0\nsamples = 3\nvalue = 2.5"] ;
993 -> 994 ;
995 [label="b28_LC8_07 <= 310.0\nmse = 0.0\nsamples = 2\nvalue = 2.3"] ;
994 -> 995 ;
996 [label="mse = 0.0\nsamples = 1\nvalue = 2.3"] ;
995 -> 996 ;
997 [label="mse = 0.0\nsamples = 1\nvalue = 2.3"] ;
995 -> 997 ;
998 [label="mse = 0.0\nsamples = 1\nvalue = 2.7"] ;
994 -> 998 ;
999 [label="b5_LC8_075 <= 20.5\nmse = 0.0\nsamples = 120\nvalue = 2.0"] ;
993 -> 999 ;
1000 [label="b16_LC8_07 <= 15258.5\nmse = 0.0\nsamples = 110\nvalue = 2.1"] ;
999 -> 1000 ;
1001 [label="b33_LC8_07 <= 160.0\nmse = 0.0\nsamples = 36\nvalue = 2.0"] ;
1000 -> 1001 ;
1002 [label="b1_LC8_075 <= 100.5\nmse = 0.0\nsamples = 2\nvalue = 1.6"] ;
1001 -> 1002 ;
1003 [label="mse = 0.0\nsamples = 1\nvalue = 1.7"] ;
1002 -> 1003 ;
1004 [label="mse = 0.0\nsamples = 1\nvalue = 1.5"] ;
1002 -> 1004 ;
1005 [label="b33_LC8_07 <= 168.0\nmse = 0.0\nsamples = 34\nvalue = 2.0"] ;
1001 -> 1005 ;
1006 [label="b35_LC8_07 <= 853.0\nmse = 0.0\nsamples = 5\nvalue = 2.2"] ;
1005 -> 1006 ;
1007 [label="b24_LC8_07 <= 224.5\nmse = 0.0\nsamples = 3\nvalue = 2.2"] ;
1006 -> 1007 ;
1008 [label="b17_LC8_07 <= 840.5\nmse = 0.0\nsamples = 2\nvalue = 2.3"] ;
1007 -> 1008 ;
1009 [label="mse = 0.0\nsamples = 1\nvalue = 2.3"] ;
1008 -> 1009 ;
1010 [label="mse = 0.0\nsamples = 1\nvalue = 2.2"] ;
1008 -> 1010 ;
1011 [label="mse = -0.0\nsamples = 1\nvalue = 2.1"] ;
1007 -> 1011 ;
1012 [label="b9_LC8_075 <= 5400.0\nmse = 0.0\nsamples = 2\nvalue = 2.1"] ;
1006 -> 1012 ;
1013 [label="mse = 0.0\nsamples = 1\nvalue = 2.1"] ;
1012 -> 1013 ;
1014 [label="mse = -0.0\nsamples = 1\nvalue = 2.1"] ;
1012 -> 1014 ;
1015 [label="b5_LC8_075 <= 14.5\nmse = 0.0\nsamples = 29\nvalue = 2.0"] ;
1005 -> 1015 ;
1016 [label="b7_LC8_075 <= 454.0\nmse = 0.0\nsamples = 7\nvalue = 2.1"] ;
1015 -> 1016 ;
1017 [label="b6_LC8_075 <= 13.0\nmse = 0.0\nsamples = 2\nvalue = 2.0"] ;
1016 -> 1017 ;
1018 [label="mse = 0.0\nsamples = 1\nvalue = 2.0"] ;
1017 -> 1018 ;
1019 [label="mse = 0.0\nsamples = 1\nvalue = 2.0"] ;
1017 -> 1019 ;
1020 [label="b6_LC8_075 <= 14.5\nmse = 0.0\nsamples = 5\nvalue = 2.1"] ;
1016 -> 1020 ;
1021 [label="b17_LC8_07 <= 837.0\nmse = 0.0\nsamples = 3\nvalue = 2.1"] ;
1020 -> 1021 ;
1022 [label="b9_LC8_075 <= 5262.5\nmse = 0.0\nsamples = 2\nvalue = 2.1"] ;
1021 -> 1022 ;
1023 [label="mse = 0.0\nsamples = 1\nvalue = 2.1"] ;
1022 -> 1023 ;
1024 [label="mse = 0.0\nsamples = 1\nvalue = 2.1"] ;
1022 -> 1024 ;
1025 [label="mse = 0.0\nsamples = 1\nvalue = 2.1"] ;
1021 -> 1025 ;
1026 [label="b11_LC8_07 <= 6454.0\nmse = 0.0\nsamples = 2\nvalue = 2.2"] ;
1020 -> 1026 ;
1027 [label="mse = 0.0\nsamples = 1\nvalue = 2.2"] ;
1026 -> 1027 ;
1028 [label="mse = 0.0\nsamples = 1\nvalue = 2.2"] ;
1026 -> 1028 ;
1029 [label="b3_LC8_075 <= 77.5\nmse = 0.0\nsamples = 22\nvalue = 1.9"] ;
1015 -> 1029 ;
1030 [label="b35_LC8_07 <= 801.0\nmse = 0.0\nsamples = 15\nvalue = 2.0"] ;
1029 -> 1030 ;
1031 [label="b29_LC8_07 <= 241.0\nmse = 0.0\nsamples = 10\nvalue = 2.0"] ;
1030 -> 1031 ;
1032 [label="b17_LC8_07 <= 797.0\nmse = 0.0\nsamples = 5\nvalue = 2.1"] ;
1031 -> 1032 ;
1033 [label="b33_LC8_07 <= 182.5\nmse = 0.0\nsamples = 4\nvalue = 2.1"] ;
1032 -> 1033 ;
1034 [label="b11_LC8_07 <= 7346.5\nmse = 0.0\nsamples = 3\nvalue = 2.1"] ;
1033 -> 1034 ;
1035 [label="b15_LC8_07 <= 11039.5\nmse = 0.0\nsamples = 2\nvalue = 2.1"] ;
1034 -> 1035 ;
1036 [label="mse = 0.0\nsamples = 1\nvalue = 2.1"] ;
1035 -> 1036 ;
1037 [label="mse = -0.0\nsamples = 1\nvalue = 2.1"] ;
1035 -> 1037 ;
1038 [label="mse = 0.0\nsamples = 1\nvalue = 2.1"] ;
1034 -> 1038 ;
1039 [label="mse = 0.0\nsamples = 1\nvalue = 2.2"] ;
1033 -> 1039 ;
1040 [label="mse = -0.0\nsamples = 1\nvalue = 1.9"] ;
1032 -> 1040 ;
1041 [label="b31_LC8_07 <= 138.5\nmse = 0.0\nsamples = 5\nvalue = 2.0"] ;
1031 -> 1041 ;
1042 [label="b11_LC8_07 <= 7346.5\nmse = 0.0\nsamples = 2\nvalue = 1.9"] ;
1041 -> 1042 ;
1043 [label="mse = 0.0\nsamples = 1\nvalue = 1.9"] ;
1042 -> 1043 ;
1044 [label="mse = -0.0\nsamples = 1\nvalue = 1.9"] ;
1042 -> 1044 ;
1045 [label="b25_LC8_07 <= 969.0\nmse = 0.0\nsamples = 3\nvalue = 2.0"] ;
1041 -> 1045 ;
1046 [label="b3_LC8_075 <= 73.0\nmse = 0.0\nsamples = 2\nvalue = 2.0"] ;
1045 -> 1046 ;
1047 [label="mse = 0.0\nsamples = 1\nvalue = 2.0"] ;
1046 -> 1047 ;
1048 [label="mse = 0.0\nsamples = 1\nvalue = 2.0"] ;
1046 -> 1048 ;
1049 [label="mse = -0.0\nsamples = 1\nvalue = 2.0"] ;
1045 -> 1049 ;
1050 [label="b9_LC8_075 <= 4381.0\nmse = 0.0\nsamples = 5\nvalue = 1.9"] ;
1030 -> 1050 ;
1051 [label="mse = 0.0\nsamples = 1\nvalue = 1.8"] ;
1050 -> 1051 ;
1052 [label="b18_LC8_07 <= 388.0\nmse = 0.0\nsamples = 4\nvalue = 1.9"] ;
1050 -> 1052 ;
1053 [label="b2_LC8_075 <= 200.0\nmse = 0.0\nsamples = 2\nvalue = 1.9"] ;
1052 -> 1053 ;
1054 [label="mse = 0.0\nsamples = 1\nvalue = 1.9"] ;
1053 -> 1054 ;
1055 [label="mse = 0.0\nsamples = 1\nvalue = 1.9"] ;
1053 -> 1055 ;
1056 [label="b17_LC8_07 <= 832.5\nmse = 0.0\nsamples = 2\nvalue = 2.0"] ;
1052 -> 1056 ;
1057 [label="mse = 0.0\nsamples = 1\nvalue = 2.0"] ;
1056 -> 1057 ;
1058 [label="mse = -0.0\nsamples = 1\nvalue = 2.0"] ;
1056 -> 1058 ;
1059 [label="b31_LC8_07 <= 141.5\nmse = 0.0\nsamples = 7\nvalue = 1.8"] ;
1029 -> 1059 ;
1060 [label="mse = 0.0\nsamples = 1\nvalue = 1.6"] ;
1059 -> 1060 ;
1061 [label="b8_LC8_075 <= 1217.0\nmse = 0.0\nsamples = 6\nvalue = 1.9"] ;
1059 -> 1061 ;
1062 [label="b12_LC8_07 <= 2205.5\nmse = 0.0\nsamples = 4\nvalue = 1.8"] ;
1061 -> 1062 ;
1063 [label="b2_LC8_075 <= 197.0\nmse = 0.0\nsamples = 3\nvalue = 1.9"] ;
1062 -> 1063 ;
1064 [label="mse = 0.0\nsamples = 1\nvalue = 1.9"] ;
1063 -> 1064 ;
1065 [label="b26_LC8_07 <= 1366.5\nmse = 0.0\nsamples = 2\nvalue = 1.9"] ;
1063 -> 1065 ;
1066 [label="mse = 0.0\nsamples = 1\nvalue = 1.9"] ;
1065 -> 1066 ;
1067 [label="mse = 0.0\nsamples = 1\nvalue = 1.9"] ;
1065 -> 1067 ;
1068 [label="mse = -0.0\nsamples = 1\nvalue = 1.8"] ;
1062 -> 1068 ;
1069 [label="b32_LC8_07 <= 74.0\nmse = 0.0\nsamples = 2\nvalue = 2.0"] ;
1061 -> 1069 ;
1070 [label="mse = 0.0\nsamples = 1\nvalue = 2.0"] ;
1069 -> 1070 ;
1071 [label="mse = -0.0\nsamples = 1\nvalue = 1.9"] ;
1069 -> 1071 ;
1072 [label="b3_LC8_075 <= 82.5\nmse = 0.0\nsamples = 74\nvalue = 2.1"] ;
1000 -> 1072 ;
1073 [label="b8_LC8_075 <= 1290.5\nmse = 0.0\nsamples = 37\nvalue = 2.1"] ;
1072 -> 1073 ;
1074 [label="b2_LC8_075 <= 203.5\nmse = 0.0\nsamples = 33\nvalue = 2.2"] ;
1073 -> 1074 ;
1075 [label="b20_LC8_07 <= 4687.5\nmse = 0.0\nsamples = 20\nvalue = 2.2"] ;
1074 -> 1075 ;
1076 [label="b9_LC8_075 <= 4712.0\nmse = 0.0\nsamples = 7\nvalue = 2.1"] ;
1075 -> 1076 ;
1077 [label="b34_LC8_07 <= 491.0\nmse = 0.0\nsamples = 2\nvalue = 2.2"] ;
1076 -> 1077 ;
1078 [label="mse = 0.0\nsamples = 1\nvalue = 2.3"] ;
1077 -> 1078 ;
1079 [label="mse = -0.0\nsamples = 1\nvalue = 2.2"] ;
1077 -> 1079 ;
1080 [label="b20_LC8_07 <= 4136.0\nmse = 0.0\nsamples = 5\nvalue = 2.1"] ;
1076 -> 1080 ;
1081 [label="mse = 0.0\nsamples = 1\nvalue = 1.9"] ;
1080 -> 1081 ;
1082 [label="b23_LC8_07 <= 89.5\nmse = 0.0\nsamples = 4\nvalue = 2.1"] ;
1080 -> 1082 ;
1083 [label="b21_LC8_07 <= 7697.0\nmse = 0.0\nsamples = 3\nvalue = 2.1"] ;
1082 -> 1083 ;
1084 [label="b32_LC8_07 <= 59.0\nmse = 0.0\nsamples = 2\nvalue = 2.1"] ;
1083 -> 1084 ;
1085 [label="mse = 0.0\nsamples = 1\nvalue = 2.1"] ;
1084 -> 1085 ;
1086 [label="mse = 0.0\nsamples = 1\nvalue = 2.1"] ;
1084 -> 1086 ;
1087 [label="mse = -0.0\nsamples = 1\nvalue = 2.1"] ;
1083 -> 1087 ;
1088 [label="mse = -0.0\nsamples = 1\nvalue = 2.1"] ;
1082 -> 1088 ;
1089 [label="b16_LC8_07 <= 15500.0\nmse = 0.0\nsamples = 13\nvalue = 2.3"] ;
1075 -> 1089 ;
1090 [label="mse = 0.0\nsamples = 1\nvalue = 2.1"] ;
1089 -> 1090 ;
1091 [label="b25_LC8_07 <= 1233.0\nmse = 0.0\nsamples = 12\nvalue = 2.3"] ;
1089 -> 1091 ;
1092 [label="b25_LC8_07 <= 966.5\nmse = 0.0\nsamples = 6\nvalue = 2.3"] ;
1091 -> 1092 ;
1093 [label="mse = 0.0\nsamples = 1\nvalue = 2.2"] ;
1092 -> 1093 ;
1094 [label="b15_LC8_07 <= 13112.0\nmse = 0.0\nsamples = 5\nvalue = 2.3"] ;
1092 -> 1094 ;
1095 [label="b7_LC8_075 <= 482.0\nmse = 0.0\nsamples = 2\nvalue = 2.4"] ;
1094 -> 1095 ;
1096 [label="mse = 0.0\nsamples = 1\nvalue = 2.4"] ;
1095 -> 1096 ;
1097 [label="mse = 0.0\nsamples = 1\nvalue = 2.4"] ;
1095 -> 1097 ;
1098 [label="b15_LC8_07 <= 14470.0\nmse = 0.0\nsamples = 3\nvalue = 2.3"] ;
1094 -> 1098 ;
1099 [label="mse = 0.0\nsamples = 1\nvalue = 2.3"] ;
1098 -> 1099 ;
1100 [label="b32_LC8_07 <= 42.5\nmse = 0.0\nsamples = 2\nvalue = 2.3"] ;
1098 -> 1100 ;
1101 [label="mse = 0.0\nsamples = 1\nvalue = 2.3"] ;
1100 -> 1101 ;
1102 [label="mse = 0.0\nsamples = 1\nvalue = 2.3"] ;
1100 -> 1102 ;
1103 [label="b13_LC8_07 <= 2571.0\nmse = 0.0\nsamples = 6\nvalue = 2.2"] ;
1091 -> 1103 ;
1104 [label="b2_LC8_075 <= 199.0\nmse = 0.0\nsamples = 3\nvalue = 2.2"] ;
1103 -> 1104 ;
1105 [label="mse = 0.0\nsamples = 1\nvalue = 2.2"] ;
1104 -> 1105 ;
1106 [label="b12_LC8_07 <= 2208.0\nmse = 0.0\nsamples = 2\nvalue = 2.2"] ;
1104 -> 1106 ;
1107 [label="mse = 0.0\nsamples = 1\nvalue = 2.2"] ;
1106 -> 1107 ;
1108 [label="mse = 0.0\nsamples = 1\nvalue = 2.2"] ;
1106 -> 1108 ;
1109 [label="b34_LC8_07 <= 555.5\nmse = 0.0\nsamples = 3\nvalue = 2.3"] ;
1103 -> 1109 ;
1110 [label="mse = 0.0\nsamples = 1\nvalue = 2.3"] ;
1109 -> 1110 ;
1111 [label="b1_LC8_075 <= 92.5\nmse = 0.0\nsamples = 2\nvalue = 2.3"] ;
1109 -> 1111 ;
1112 [label="mse = 0.0\nsamples = 1\nvalue = 2.3"] ;
1111 -> 1112 ;
1113 [label="mse = -0.0\nsamples = 1\nvalue = 2.3"] ;
1111 -> 1113 ;
1114 [label="b22_LC8_07 <= 184.5\nmse = 0.0\nsamples = 13\nvalue = 2.1"] ;
1074 -> 1114 ;
1115 [label="b29_LC8_07 <= 202.5\nmse = 0.0\nsamples = 8\nvalue = 2.1"] ;
1114 -> 1115 ;
1116 [label="b18_LC8_07 <= 396.0\nmse = 0.0\nsamples = 7\nvalue = 2.1"] ;
1115 -> 1116 ;
1117 [label="b32_LC8_07 <= 51.0\nmse = 0.0\nsamples = 5\nvalue = 2.1"] ;
1116 -> 1117 ;
1118 [label="b24_LC8_07 <= 184.5\nmse = 0.0\nsamples = 2\nvalue = 2.1"] ;
1117 -> 1118 ;
1119 [label="mse = 0.0\nsamples = 1\nvalue = 2.1"] ;
1118 -> 1119 ;
1120 [label="mse = 0.0\nsamples = 1\nvalue = 2.1"] ;
1118 -> 1120 ;
1121 [label="b18_LC8_07 <= 394.0\nmse = 0.0\nsamples = 3\nvalue = 2.1"] ;
1117 -> 1121 ;
1122 [label="b15_LC8_07 <= 16687.5\nmse = 0.0\nsamples = 2\nvalue = 2.1"] ;
1121 -> 1122 ;
1123 [label="mse = 0.0\nsamples = 1\nvalue = 2.1"] ;
1122 -> 1123 ;
1124 [label="mse = 0.0\nsamples = 1\nvalue = 2.1"] ;
1122 -> 1124 ;
1125 [label="mse = -0.0\nsamples = 1\nvalue = 2.1"] ;
1121 -> 1125 ;
1126 [label="b31_LC8_07 <= 111.5\nmse = 0.0\nsamples = 2\nvalue = 2.0"] ;
1116 -> 1126 ;
1127 [label="mse = 0.0\nsamples = 1\nvalue = 2.0"] ;
1126 -> 1127 ;
1128 [label="mse = -0.0\nsamples = 1\nvalue = 2.1"] ;
1126 -> 1128 ;
1129 [label="mse = -0.0\nsamples = 1\nvalue = 2.2"] ;
1115 -> 1129 ;
1130 [label="b35_LC8_07 <= 825.0\nmse = 0.0\nsamples = 5\nvalue = 2.2"] ;
1114 -> 1130 ;
1131 [label="b7_LC8_075 <= 458.5\nmse = 0.0\nsamples = 4\nvalue = 2.2"] ;
1130 -> 1131 ;
1132 [label="b13_LC8_07 <= 2518.5\nmse = 0.0\nsamples = 3\nvalue = 2.2"] ;
1131 -> 1132 ;
1133 [label="mse = 0.0\nsamples = 1\nvalue = 2.2"] ;
1132 -> 1133 ;
1134 [label="b16_LC8_07 <= 24451.5\nmse = 0.0\nsamples = 2\nvalue = 2.2"] ;
1132 -> 1134 ;
1135 [label="mse = 0.0\nsamples = 1\nvalue = 2.2"] ;
1134 -> 1135 ;
1136 [label="mse = 0.0\nsamples = 1\nvalue = 2.2"] ;
1134 -> 1136 ;
1137 [label="mse = -0.0\nsamples = 1\nvalue = 2.3"] ;
1131 -> 1137 ;
1138 [label="mse = 0.0\nsamples = 1\nvalue = 2.0"] ;
1130 -> 1138 ;
1139 [label="b33_LC8_07 <= 128.5\nmse = 0.0\nsamples = 4\nvalue = 1.9"] ;
1073 -> 1139 ;
1140 [label="mse = 0.0\nsamples = 1\nvalue = 1.8"] ;
1139 -> 1140 ;
1141 [label="b22_LC8_07 <= 182.5\nmse = 0.0\nsamples = 3\nvalue = 2.0"] ;
1139 -> 1141 ;
1142 [label="b2_LC8_075 <= 188.5\nmse = 0.0\nsamples = 2\nvalue = 2.0"] ;
1141 -> 1142 ;
1143 [label="mse = 0.0\nsamples = 1\nvalue = 2.0"] ;
1142 -> 1143 ;
1144 [label="mse = -0.0\nsamples = 1\nvalue = 2.0"] ;
1142 -> 1144 ;
1145 [label="mse = 0.0\nsamples = 1\nvalue = 2.1"] ;
1141 -> 1145 ;
1146 [label="b12_LC8_07 <= 2268.5\nmse = 0.0\nsamples = 37\nvalue = 2.0"] ;
1072 -> 1146 ;
1147 [label="b30_LC8_07 <= 1038.5\nmse = 0.0\nsamples = 31\nvalue = 2.0"] ;
1146 -> 1147 ;
1148 [label="b18_LC8_07 <= 404.5\nmse = 0.0\nsamples = 29\nvalue = 2.0"] ;
1147 -> 1148 ;
1149 [label="b8_LC8_075 <= 1130.0\nmse = 0.0\nsamples = 5\nvalue = 2.1"] ;
1148 -> 1149 ;
1150 [label="mse = 0.0\nsamples = 1\nvalue = 2.1"] ;
1149 -> 1150 ;
1151 [label="b17_LC8_07 <= 879.0\nmse = 0.0\nsamples = 4\nvalue = 2.1"] ;
1149 -> 1151 ;
1152 [label="b22_LC8_07 <= 182.0\nmse = 0.0\nsamples = 2\nvalue = 2.2"] ;
1151 -> 1152 ;
1153 [label="mse = 0.0\nsamples = 1\nvalue = 2.2"] ;
1152 -> 1153 ;
1154 [label="mse = 0.0\nsamples = 1\nvalue = 2.2"] ;
1152 -> 1154 ;
1155 [label="b32_LC8_07 <= 57.5\nmse = 0.0\nsamples = 2\nvalue = 2.1"] ;
1151 -> 1155 ;
1156 [label="mse = 0.0\nsamples = 1\nvalue = 2.1"] ;
1155 -> 1156 ;
1157 [label="mse = 0.0\nsamples = 1\nvalue = 2.1"] ;
1155 -> 1157 ;
1158 [label="b15_LC8_07 <= 13729.0\nmse = 0.0\nsamples = 24\nvalue = 2.0"] ;
1148 -> 1158 ;
1159 [label="b9_LC8_075 <= 5139.0\nmse = 0.0\nsamples = 6\nvalue = 2.1"] ;
1158 -> 1159 ;
1160 [label="b1_LC8_075 <= 95.0\nmse = 0.0\nsamples = 4\nvalue = 2.0"] ;
1159 -> 1160 ;
1161 [label="b6_LC8_075 <= 10.0\nmse = 0.0\nsamples = 3\nvalue = 2.0"] ;
1160 -> 1161 ;
1162 [label="mse = 0.0\nsamples = 1\nvalue = 2.0"] ;
1161 -> 1162 ;
1163 [label="mse = 0.0\nsamples = 2\nvalue = 2.0"] ;
1161 -> 1163 ;
1164 [label="mse = -0.0\nsamples = 1\nvalue = 2.1"] ;
1160 -> 1164 ;
1165 [label="b25_LC8_07 <= 1029.5\nmse = 0.0\nsamples = 2\nvalue = 2.2"] ;
1159 -> 1165 ;
1166 [label="mse = 0.0\nsamples = 1\nvalue = 2.2"] ;
1165 -> 1166 ;
1167 [label="mse = 0.0\nsamples = 1\nvalue = 2.2"] ;
1165 -> 1167 ;
1168 [label="b22_LC8_07 <= 206.0\nmse = 0.0\nsamples = 18\nvalue = 2.0"] ;
1158 -> 1168 ;
1169 [label="b7_LC8_075 <= 444.5\nmse = 0.0\nsamples = 15\nvalue = 2.0"] ;
1168 -> 1169 ;
1170 [label="mse = 0.0\nsamples = 1\nvalue = 2.1"] ;
1169 -> 1170 ;
1171 [label="b7_LC8_075 <= 449.0\nmse = 0.0\nsamples = 14\nvalue = 2.0"] ;
1169 -> 1171 ;
1172 [label="b1_LC8_075 <= 94.0\nmse = 0.0\nsamples = 2\nvalue = 2.0"] ;
1171 -> 1172 ;
1173 [label="mse = 0.0\nsamples = 1\nvalue = 2.0"] ;
1172 -> 1173 ;
1174 [label="mse = 0.0\nsamples = 1\nvalue = 2.0"] ;
1172 -> 1174 ;
1175 [label="b16_LC8_07 <= 18591.0\nmse = 0.0\nsamples = 12\nvalue = 2.0"] ;
1171 -> 1175 ;
1176 [label="b8_LC8_075 <= 1130.5\nmse = 0.0\nsamples = 4\nvalue = 2.0"] ;
1175 -> 1176 ;
1177 [label="b14_LC8_07 <= 11949.5\nmse = 0.0\nsamples = 3\nvalue = 2.0"] ;
1176 -> 1177 ;
1178 [label="mse = 0.0\nsamples = 1\nvalue = 2.0"] ;
1177 -> 1178 ;
1179 [label="b33_LC8_07 <= 141.0\nmse = 0.0\nsamples = 2\nvalue = 2.0"] ;
1177 -> 1179 ;
1180 [label="mse = 0.0\nsamples = 1\nvalue = 2.0"] ;
1179 -> 1180 ;
1181 [label="mse = -0.0\nsamples = 1\nvalue = 2.0"] ;
1179 -> 1181 ;
1182 [label="mse = 0.0\nsamples = 1\nvalue = 2.0"] ;
1176 -> 1182 ;
1183 [label="b1_LC8_075 <= 100.5\nmse = 0.0\nsamples = 8\nvalue = 2.0"] ;
1175 -> 1183 ;
1184 [label="b12_LC8_07 <= 2160.0\nmse = 0.0\nsamples = 6\nvalue = 2.0"] ;
1183 -> 1184 ;
1185 [label="b29_LC8_07 <= 150.0\nmse = 0.0\nsamples = 2\nvalue = 2.0"] ;
1184 -> 1185 ;
1186 [label="mse = 0.0\nsamples = 1\nvalue = 2.0"] ;
1185 -> 1186 ;
1187 [label="mse = -0.0\nsamples = 1\nvalue = 2.0"] ;
1185 -> 1187 ;
1188 [label="b27_LC8_07 <= 129.0\nmse = 0.0\nsamples = 4\nvalue = 2.0"] ;
1184 -> 1188 ;
1189 [label="b30_LC8_07 <= 746.5\nmse = 0.0\nsamples = 2\nvalue = 2.0"] ;
1188 -> 1189 ;
1190 [label="mse = 0.0\nsamples = 1\nvalue = 2.0"] ;
1189 -> 1190 ;
1191 [label="mse = -0.0\nsamples = 1\nvalue = 2.0"] ;
1189 -> 1191 ;
1192 [label="b2_LC8_075 <= 210.5\nmse = 0.0\nsamples = 2\nvalue = 2.0"] ;
1188 -> 1192 ;
1193 [label="mse = 0.0\nsamples = 1\nvalue = 2.0"] ;
1192 -> 1193 ;
1194 [label="mse = 0.0\nsamples = 1\nvalue = 2.0"] ;
1192 -> 1194 ;
1195 [label="b35_LC8_07 <= 714.5\nmse = 0.0\nsamples = 2\nvalue = 2.0"] ;
1183 -> 1195 ;
1196 [label="mse = 0.0\nsamples = 1\nvalue = 1.9"] ;
1195 -> 1196 ;
1197 [label="mse = 0.0\nsamples = 1\nvalue = 2.0"] ;
1195 -> 1197 ;
1198 [label="b1_LC8_075 <= 101.5\nmse = 0.0\nsamples = 3\nvalue = 2.1"] ;
1168 -> 1198 ;
1199 [label="b19_LC8_07 <= 4119.0\nmse = 0.0\nsamples = 2\nvalue = 2.0"] ;
1198 -> 1199 ;
1200 [label="mse = 0.0\nsamples = 1\nvalue = 2.0"] ;
1199 -> 1200 ;
1201 [label="mse = 0.0\nsamples = 1\nvalue = 2.0"] ;
1199 -> 1201 ;
1202 [label="mse = 0.0\nsamples = 1\nvalue = 2.1"] ;
1198 -> 1202 ;
1203 [label="b23_LC8_07 <= 63.0\nmse = 0.0\nsamples = 2\nvalue = 2.3"] ;
1147 -> 1203 ;
1204 [label="mse = 0.0\nsamples = 1\nvalue = 2.3"] ;
1203 -> 1204 ;
1205 [label="mse = 0.0\nsamples = 1\nvalue = 2.2"] ;
1203 -> 1205 ;
1206 [label="b15_LC8_07 <= 16000.0\nmse = 0.0\nsamples = 6\nvalue = 1.9"] ;
1146 -> 1206 ;
1207 [label="b12_LC8_07 <= 2279.0\nmse = 0.0\nsamples = 3\nvalue = 1.8"] ;
1206 -> 1207 ;
1208 [label="mse = 0.0\nsamples = 1\nvalue = 1.8"] ;
1207 -> 1208 ;
1209 [label="b24_LC8_07 <= 213.0\nmse = 0.0\nsamples = 2\nvalue = 1.8"] ;
1207 -> 1209 ;
1210 [label="mse = 0.0\nsamples = 1\nvalue = 1.8"] ;
1209 -> 1210 ;
1211 [label="mse = 0.0\nsamples = 1\nvalue = 1.8"] ;
1209 -> 1211 ;
1212 [label="b32_LC8_07 <= 45.5\nmse = 0.0\nsamples = 3\nvalue = 2.0"] ;
1206 -> 1212 ;
1213 [label="mse = 0.0\nsamples = 1\nvalue = 2.1"] ;
1212 -> 1213 ;
1214 [label="b31_LC8_07 <= 120.0\nmse = 0.0\nsamples = 2\nvalue = 2.0"] ;
1212 -> 1214 ;
1215 [label="mse = 0.0\nsamples = 1\nvalue = 2.0"] ;
1214 -> 1215 ;
1216 [label="mse = 0.0\nsamples = 1\nvalue = 2.0"] ;
1214 -> 1216 ;
1217 [label="b31_LC8_07 <= 200.0\nmse = 0.0\nsamples = 10\nvalue = 1.7"] ;
999 -> 1217 ;
1218 [label="b35_LC8_07 <= 663.0\nmse = 0.0\nsamples = 8\nvalue = 1.7"] ;
1217 -> 1218 ;
1219 [label="b25_LC8_07 <= 869.0\nmse = 0.0\nsamples = 3\nvalue = 1.8"] ;
1218 -> 1219 ;
1220 [label="mse = 0.0\nsamples = 1\nvalue = 1.9"] ;
1219 -> 1220 ;
1221 [label="b28_LC8_07 <= 121.5\nmse = 0.0\nsamples = 2\nvalue = 1.7"] ;
1219 -> 1221 ;
1222 [label="mse = 0.0\nsamples = 1\nvalue = 1.7"] ;
1221 -> 1222 ;
1223 [label="mse = -0.0\nsamples = 1\nvalue = 1.7"] ;
1221 -> 1223 ;
1224 [label="b11_LC8_07 <= 6061.0\nmse = 0.0\nsamples = 5\nvalue = 1.6"] ;
1218 -> 1224 ;
1225 [label="b15_LC8_07 <= 9468.0\nmse = 0.0\nsamples = 4\nvalue = 1.5"] ;
1224 -> 1225 ;
1226 [label="b18_LC8_07 <= 400.5\nmse = 0.0\nsamples = 3\nvalue = 1.6"] ;
1225 -> 1226 ;
1227 [label="mse = 0.0\nsamples = 1\nvalue = 1.5"] ;
1226 -> 1227 ;
1228 [label="b10_LC8_07 <= 4195.5\nmse = 0.0\nsamples = 2\nvalue = 1.6"] ;
1226 -> 1228 ;
1229 [label="mse = 0.0\nsamples = 1\nvalue = 1.6"] ;
1228 -> 1229 ;
1230 [label="mse = -0.0\nsamples = 1\nvalue = 1.6"] ;
1228 -> 1230 ;
1231 [label="mse = 0.0\nsamples = 1\nvalue = 1.4"] ;
1225 -> 1231 ;
1232 [label="mse = -0.0\nsamples = 1\nvalue = 1.7"] ;
1224 -> 1232 ;
1233 [label="b5_LC8_075 <= 31.0\nmse = 0.0\nsamples = 2\nvalue = 2.0"] ;
1217 -> 1233 ;
1234 [label="mse = 0.0\nsamples = 1\nvalue = 2.0"] ;
1233 -> 1234 ;
1235 [label="mse = 0.0\nsamples = 1\nvalue = 2.0"] ;
1233 -> 1235 ;
1236 [label="b18_LC8_07 <= 465.5\nmse = 0.1\nsamples = 40\nvalue = 2.2"] ;
992 -> 1236 ;
1237 [label="b26_LC8_07 <= 2202.0\nmse = 0.1\nsamples = 39\nvalue = 2.2"] ;
1236 -> 1237 ;
1238 [label="b12_LC8_07 <= 1963.5\nmse = 0.0\nsamples = 36\nvalue = 2.2"] ;
1237 -> 1238 ;
1239 [label="b13_LC8_07 <= 2728.0\nmse = 0.0\nsamples = 35\nvalue = 2.2"] ;
1238 -> 1239 ;
1240 [label="b23_LC8_07 <= 127.5\nmse = 0.0\nsamples = 34\nvalue = 2.2"] ;
1239 -> 1240 ;
1241 [label="b35_LC8_07 <= 966.5\nmse = 0.0\nsamples = 24\nvalue = 2.2"] ;
1240 -> 1241 ;
1242 [label="b3_LC8_075 <= 75.5\nmse = 0.0\nsamples = 21\nvalue = 2.1"] ;
1241 -> 1242 ;
1243 [label="b35_LC8_07 <= 898.0\nmse = 0.0\nsamples = 16\nvalue = 2.1"] ;
1242 -> 1243 ;
1244 [label="b14_LC8_07 <= 9937.5\nmse = 0.0\nsamples = 14\nvalue = 2.1"] ;
1243 -> 1244 ;
1245 [label="b7_LC8_075 <= 545.0\nmse = 0.0\nsamples = 10\nvalue = 2.2"] ;
1244 -> 1245 ;
1246 [label="b19_LC8_07 <= 3104.0\nmse = 0.0\nsamples = 9\nvalue = 2.1"] ;
1245 -> 1246 ;
1247 [label="b18_LC8_07 <= 375.0\nmse = 0.0\nsamples = 2\nvalue = 2.2"] ;
1246 -> 1247 ;
1248 [label="mse = 0.0\nsamples = 1\nvalue = 2.2"] ;
1247 -> 1248 ;
1249 [label="mse = 0.0\nsamples = 1\nvalue = 2.2"] ;
1247 -> 1249 ;
1250 [label="b14_LC8_07 <= 8467.5\nmse = 0.0\nsamples = 7\nvalue = 2.1"] ;
1246 -> 1250 ;
1251 [label="mse = 0.0\nsamples = 1\nvalue = 2.1"] ;
1250 -> 1251 ;
1252 [label="b6_LC8_075 <= 12.0\nmse = 0.0\nsamples = 6\nvalue = 2.1"] ;
1250 -> 1252 ;
1253 [label="b28_LC8_07 <= 89.5\nmse = 0.0\nsamples = 3\nvalue = 2.1"] ;
1252 -> 1253 ;
1254 [label="b33_LC8_07 <= 150.0\nmse = 0.0\nsamples = 2\nvalue = 2.1"] ;
1253 -> 1254 ;
1255 [label="mse = 0.0\nsamples = 1\nvalue = 2.1"] ;
1254 -> 1255 ;
1256 [label="mse = 0.0\nsamples = 1\nvalue = 2.1"] ;
1254 -> 1256 ;
1257 [label="mse = -0.0\nsamples = 1\nvalue = 2.1"] ;
1253 -> 1257 ;
1258 [label="b18_LC8_07 <= 380.0\nmse = 0.0\nsamples = 3\nvalue = 2.1"] ;
1252 -> 1258 ;
1259 [label="b30_LC8_07 <= 928.5\nmse = 0.0\nsamples = 2\nvalue = 2.1"] ;
1258 -> 1259 ;
1260 [label="mse = 0.0\nsamples = 1\nvalue = 2.1"] ;
1259 -> 1260 ;
1261 [label="mse = 0.0\nsamples = 1\nvalue = 2.1"] ;
1259 -> 1261 ;
1262 [label="mse = -0.0\nsamples = 1\nvalue = 2.2"] ;
1258 -> 1262 ;
1263 [label="mse = -0.0\nsamples = 1\nvalue = 2.3"] ;
1245 -> 1263 ;
1264 [label="b30_LC8_07 <= 2398.0\nmse = 0.0\nsamples = 4\nvalue = 2.1"] ;
1244 -> 1264 ;
1265 [label="b23_LC8_07 <= 97.5\nmse = 0.0\nsamples = 3\nvalue = 2.1"] ;
1264 -> 1265 ;
1266 [label="b33_LC8_07 <= 182.5\nmse = 0.0\nsamples = 2\nvalue = 2.1"] ;
1265 -> 1266 ;
1267 [label="mse = 0.0\nsamples = 1\nvalue = 2.1"] ;
1266 -> 1267 ;
1268 [label="mse = -0.0\nsamples = 1\nvalue = 2.1"] ;
1266 -> 1268 ;
1269 [label="mse = -0.0\nsamples = 1\nvalue = 2.1"] ;
1265 -> 1269 ;
1270 [label="mse = -0.0\nsamples = 1\nvalue = 1.9"] ;
1264 -> 1270 ;
1271 [label="b20_LC8_07 <= 4833.5\nmse = 0.0\nsamples = 2\nvalue = 1.9"] ;
1243 -> 1271 ;
1272 [label="mse = 0.0\nsamples = 1\nvalue = 2.0"] ;
1271 -> 1272 ;
1273 [label="mse = 0.0\nsamples = 1\nvalue = 1.9"] ;
1271 -> 1273 ;
1274 [label="b17_LC8_07 <= 753.5\nmse = 0.0\nsamples = 5\nvalue = 2.2"] ;
1242 -> 1274 ;
1275 [label="mse = -0.0\nsamples = 1\nvalue = 2.4"] ;
1274 -> 1275 ;
1276 [label="b33_LC8_07 <= 172.0\nmse = 0.0\nsamples = 4\nvalue = 2.2"] ;
1274 -> 1276 ;
1277 [label="b11_LC8_07 <= 8045.0\nmse = 0.0\nsamples = 3\nvalue = 2.2"] ;
1276 -> 1277 ;
1278 [label="mse = 0.0\nsamples = 1\nvalue = 2.3"] ;
1277 -> 1278 ;
1279 [label="b28_LC8_07 <= 111.0\nmse = 0.0\nsamples = 2\nvalue = 2.2"] ;
1277 -> 1279 ;
1280 [label="mse = 0.0\nsamples = 1\nvalue = 2.2"] ;
1279 -> 1280 ;
1281 [label="mse = 0.0\nsamples = 1\nvalue = 2.2"] ;
1279 -> 1281 ;
1282 [label="mse = -0.0\nsamples = 1\nvalue = 2.0"] ;
1276 -> 1282 ;
1283 [label="b12_LC8_07 <= 1927.5\nmse = 0.0\nsamples = 3\nvalue = 2.4"] ;
1241 -> 1283 ;
1284 [label="b33_LC8_07 <= 198.0\nmse = 0.0\nsamples = 2\nvalue = 2.3"] ;
1283 -> 1284 ;
1285 [label="mse = 0.0\nsamples = 1\nvalue = 2.4"] ;
1284 -> 1285 ;
1286 [label="mse = 0.0\nsamples = 1\nvalue = 2.3"] ;
1284 -> 1286 ;
1287 [label="mse = -0.0\nsamples = 1\nvalue = 2.7"] ;
1283 -> 1287 ;
1288 [label="b29_LC8_07 <= 299.0\nmse = 0.0\nsamples = 10\nvalue = 2.4"] ;
1240 -> 1288 ;
1289 [label="b29_LC8_07 <= 268.5\nmse = 0.0\nsamples = 7\nvalue = 2.3"] ;
1288 -> 1289 ;
1290 [label="b27_LC8_07 <= 170.5\nmse = 0.0\nsamples = 2\nvalue = 2.4"] ;
1289 -> 1290 ;
1291 [label="mse = 0.0\nsamples = 1\nvalue = 2.3"] ;
1290 -> 1291 ;
1292 [label="mse = 0.0\nsamples = 1\nvalue = 2.4"] ;
1290 -> 1292 ;
1293 [label="b17_LC8_07 <= 722.0\nmse = 0.0\nsamples = 5\nvalue = 2.2"] ;
1289 -> 1293 ;
1294 [label="b8_LC8_075 <= 1429.5\nmse = 0.0\nsamples = 2\nvalue = 2.2"] ;
1293 -> 1294 ;
1295 [label="mse = 0.0\nsamples = 1\nvalue = 2.2"] ;
1294 -> 1295 ;
1296 [label="mse = -0.0\nsamples = 1\nvalue = 2.2"] ;
1294 -> 1296 ;
1297 [label="b2_LC8_075 <= 191.5\nmse = 0.0\nsamples = 3\nvalue = 2.3"] ;
1293 -> 1297 ;
1298 [label="b34_LC8_07 <= 601.0\nmse = 0.0\nsamples = 2\nvalue = 2.3"] ;
1297 -> 1298 ;
1299 [label="mse = 0.0\nsamples = 1\nvalue = 2.3"] ;
1298 -> 1299 ;
1300 [label="mse = 0.0\nsamples = 1\nvalue = 2.3"] ;
1298 -> 1300 ;
1301 [label="mse = 0.0\nsamples = 1\nvalue = 2.2"] ;
1297 -> 1301 ;
1302 [label="b15_LC8_07 <= 8467.5\nmse = 0.0\nsamples = 3\nvalue = 2.5"] ;
1288 -> 1302 ;
1303 [label="b12_LC8_07 <= 1824.0\nmse = 0.0\nsamples = 2\nvalue = 2.4"] ;
1302 -> 1303 ;
1304 [label="mse = 0.0\nsamples = 1\nvalue = 2.5"] ;
1303 -> 1304 ;
